0.000309278 0.00628866 0.00546392 0.00969072 0.00989691 0.00793814 0.00525773 0.00587629 0.00536082 0.00721649 0.00113402 0.00453608 0.00412371 0.0014433 0.00350515 0.00216495 0.00731959 0.00195876 0.00587629 0.00845361 0.00237113 0.00958763 0.00752577 0.00278351 0.00701031 0.00494845 0.00608247 0.00886598 0.00731959 0.00649485 0.00371134 0.0102062 0.00835052 0.00309278 0.00919769 0.00678097 0.0082708 0.00344618 0.00360292 0.0101462 0.00802128 0.00214477 0.00337943 0.0011357 0.00921713 0.00721624 0.00996586 0.00541456 0.0036385 0.00506107 0.000563624 0.00112991 0.00752577 0.00185567 0.000927835 0.00597938 0.00175258 0.000103093 0.000618557 0.00400776 0.00731545 0.00140205 0.00410886 0.00636633 0.00825195 0.00105515 0.00221871 0.00831028 0.00593649 0.00683998 0.00346276 0.00241861 0.00266508 0.000928679 -0.000509325 0.00370142 0.0047733 0.00885235 0.00651349 0.00619837 0.00308541 0.00608185 0.00525773 0.00835052 0.00701031 0.00690722 0.00979425 0.00221243 -0.000781466 0.00865963 0.00659293 -0.000567112 0.00192301 0.00247384 0.00753297 0.00417632 0.00646502 0.00373676 0.00042347 0.00638013 0.00938592 0.0074054 0.00236973 0.00767316 0.00305956 -0.00146314 0.00677855 0.00219587 0.00292096 0.00507676 0.00765764 0.00164948 0.00876289 0.00103093 0.0096922 0.00524218 0.00155815 0.00284449 0.00710658 -0.000697348 0.00622782 -0.00497667 0.00139219 0.00047628 -0.000146722 -0.00497751 -0.0138814 -0.0134325 -0.00528077 -0.011243 -0.00133895 -0.00200997 0.00232662 0.00341332 0.0040645 0.00136252 0.00805281 0.00594879 0.00543648 0.00544531 0.00608247 0.00597938 0.00958783 0.00785285 0.00395359 0.0053088 0.0109021 0.00711891 0.0022567 -0.00115017 0.00175428 0.0143024 0.0109719 0.0269469 0.00831355 0.0160111 0.00461315 -0.0201511 -0.00438119 -0.00231347 -0.0067814 -0.00777736 -0.00512178 -0.00694492 -0.000270075 0.0080258 0.00835685 0.00904542 0.0056701 0.00166365 0.00951845 0.00749921 0.0102243 0.00909961 -0.000286478 -0.00244864 -0.00873655 -0.0139529 -0.00389795 0.0197579 0.0158237 0.0265698 0.0257186 0.0216015 0.0248074 0.0163218 -0.00819976 -0.0108961 -0.0124905 -0.0137165 -0.0161351 -0.0096494 -0.00200413 0.003167 0.00120178 0.00306276 0.00721475 0.00111083 0.00339126 0.000817012 0.00194732 0.00173261 -0.00787683 -0.0199575 -0.0215163 -0.0294533 -0.021562 -0.00101483 0.0157498 0.0248434 0.033123 0.00919068 0.0285467 0.00160997 -0.00375802 0.0102009 -0.00481823 -0.00561024 -0.0199145 -0.0288639 -0.00752107 0.00462137 0.00656847 0.0015101 0.00499364 0.00619219 0.00743019 0.00779098 0.00899897 0.00280487 -0.00225355 -0.0135469 0.00557756 -0.0205372 -0.0223897 0.00590093 -0.0224232 -0.0148599 -0.0209441 -0.00197925 -0.0202524 -0.0245675 -0.0190849 0.000438062 -0.0155304 -0.00741915 -0.00857862 -0.0338327 -0.0143502 0.0025555 0.00900581 0.00719126 0.000411211 0.00431819 0.00831908 0.00405174 0.00378105 -0.0079442 -0.00180806 -0.00166027 0.00392836 -0.0188142 -0.0074741 -0.00590447 -0.0161786 -0.011292 -0.0298205 -0.0265338 -0.02793 0.00245663 0.00118518 0.000191125 0.0014474 -0.00144115 -0.00304551 -0.00768209 -0.00544516 0.00444412 0.00869529 0.00651816 0.00876289 0.00627853 0.00699695 0.00590709 -0.00145645 -0.00498563 0.0018357 0.000687554 0.00493276 0.00510487 -0.00700791 -0.00549434 -0.0346521 -0.025317 -0.0282119 -0.0294498 -0.0019872 0.0328504 0.0286338 0.00443938 0.00999748 -0.00161373 -0.00174624 -0.00368307 0.000908494 0.00141804 0.000562892 0.00450676 0.00731959 0.00875267 0.00620396 0.00025668 -0.00617254 -0.00589616 0.00526394 -0.000616201 0.0104659 -0.0107731 -0.0020975 -0.0173887 -0.0304742 -0.0293572 -0.0289456 0.0122432 0.0513413 0.0625398 0.0384863 0.0201131 0.00536648 -0.0125356 -0.0151418 -0.00477329 -0.000448779 0.00531206 0.00534305 0.00944765 0.000515464 0.00884102 0.00595188 0.000373091 -2.07733e-06 -0.00431618 -0.00273733 0.00663639 0.0100647 -0.00470235 -0.00968195 -0.0230902 -0.0546187 -0.0268103 0.0208099 0.0347701 0.0236372 0.0312995 0.027669 -0.0120994 -0.0101532 -0.020799 -0.013095 -0.00331351 -0.00157609 0.00759359 0.00655807 0.00634881 0.0028866 0.00975162 -0.000313794 0.00496128 0.00168083 -0.00490585 -0.00843601 -0.00232019 -0.00292228 -0.0102618 0.0172184 -0.00112545 -0.00630858 0.030822 0.0604365 0.0471961 0.0129548 0.0124957 -0.0255784 -0.0167066 -0.026661 -0.0219824 -0.00920156 -0.0129665 -0.0101615 0.00458762 0.00298893 0.00131105 0.00226804 0.006117 0.00878087 0.00375508 0.00702801 -0.00453413 -0.0139995 -0.00667696 -0.0145764 -0.00594001 0.00893958 -0.0120522 0.0151248 0.0439244 0.0335563 0.017095 0.00745978 -0.0116511 -0.0357116 -0.0349313 -0.0141632 -0.0277625 -0.0151625 -0.0128139 -0.00742988 -0.00282326 0.00290952 0.00216171 0.000824742 0.00166917 0.00878745 0.000590463 0.00741463 -0.00492793 -0.018089 -0.0270037 -0.0218359 -0.0129746 0.0189531 0.028021 0.0452915 0.0238074 0.00185032 -0.0199733 -0.0109958 -0.0115211 -0.0270995 -0.0207577 -0.0110261 -0.00992666 -0.0142273 -0.00847834 -0.00689674 0.00326413 0.00457704 0.00449498 0.00969072 0.0098035 0.00315508 0.00280317 0.00524463 -0.00980115 -0.0291379 -0.0323398 -0.0329397 -0.0295784 -0.00895133 0.0182624 0.0234954 -0.00311891 -0.0249417 -0.0218659 -0.0112042 -0.01645 -0.0120018 -0.0163171 -0.0161235 -0.0142337 -0.0208997 -0.0125107 0.00216355 0.00165506 0.00353045 0.00169894 0.00484536 0.000930936 0.00942655 0.0069738 0.00836353 -0.00892031 -0.0247336 -0.0346036 -0.0471962 -0.0577775 -0.0467274 -0.0268195 -0.0237692 -0.0199928 -0.0266245 -0.0127977 -0.0109213 -0.0195817 -0.0142447 -0.0155281 -0.026003 -0.0141049 -0.0213182 -0.00811127 -0.00857443 0.00143773 -0.000146701 0.00252988 0.00402062 0.00257732 0.00985549 0.00556469 -0.00530259 -0.00820217 -0.026074 -0.0334052 -0.0614324 -0.0698665 -0.0591951 -0.0518186 -0.0452462 -0.0250722 -0.0143749 0.00477377 0.00379836 -0.0202919 -0.00992829 -0.00866135 -0.0178526 -0.00759549 -0.0140909 -0.00933869 0.00381156 -0.00026146 0.00990554 0.00110797 0.00793814 0.00927654 0.00596263 0.00668091 -0.00174792 -0.00858452 -0.0153742 -0.0300361 -0.0470657 -0.0550635 -0.0583365 -0.0500319 -0.0354197 -0.028391 0.00398195 0.0214303 -0.00735684 -0.0183403 -0.00601386 -0.00753005 -0.0120935 -0.00626476 -0.0199087 -0.00643264 -0.000476017 -0.000217361 0.00772072 -2.27433e-06 0.000206186 0.00112947 0.00832998 0.0142998 0.00253624 -0.00381755 -0.0112652 -0.0145966 -0.0298396 -0.0320233 -0.0400503 -0.0192265 -0.0114263 -0.00796168 0.0218872 0.014335 0.00182927 -0.0160666 -0.0122452 -0.0213693 -0.0197575 -0.009446 -0.00402335 -0.0048897 0.00140659 0.00993712 0.00455274 0.00701031 0.000412371 0.00721649 0.00571201 0.0163988 0.00896826 -0.0051926 -0.00471042 0.00572701 0.0028182 -0.00778318 -0.00209657 0.0026313 0.0166679 -0.00955221 0.00474228 0.00796823 -0.00382003 -0.0285606 -0.0240148 -0.0209201 -0.0241456 -0.011097 -0.00124372 0.00155195 0.00961897 0.00979621 0.00383488 0.00226804 0.00876289 0.000515464 0.000560942 0.0103351 -0.00126835 0.000246442 0.0075924 0.00982431 0.0172136 0.00924656 0.0187766 0.030649 0.0027758 -0.00436436 -0.00350927 -0.000824078 -0.0193247 -0.0417358 -0.0219589 -0.0205714 -0.0151521 -0.00810369 -0.00399076 0.00154552 0.00708295 0.00596527 0.00532131 0.00608247 0.00268041 0.00443299 0.00576598 0.0109906 0.0125617 0.00294425 0.00789802 0.0213388 0.0293131 0.0185663 0.0355335 0.036844 -0.00297075 -0.0128762 -0.019511 -0.0271555 -0.0287916 -0.0303038 -0.0030176 0.00773074 0.00282727 -0.00279036 0.00534977 0.00312484 0.00386634 0.00806729 0.00820039 0.00597938 0.00195876 0.00515464 0.00185157 0.00527783 0.0159305 0.0206723 0.0150551 0.0288926 0.0404462 0.0532394 0.040716 0.0100732 -0.0313683 -0.0130478 -0.0397586 -0.0239694 -0.0145014 -0.00650099 -0.00924121 -0.0085063 -0.00477248 0.00121259 0.01111 0.00466442 0.00759183 0.000185333 0.00907019 0.00515464 0.00804124 0.00659794 0.0020823 0.00884228 0.00305155 0.00438928 0.0134495 0.0119192 0.0122978 0.0185431 0.0149225 -0.00893721 -0.0186192 -0.0197246 -0.0178396 -0.0103237 -0.00703379 -0.0123566 -0.00209061 -0.00420003 0.000726023 0.0111534 0.00792769 0.0089822 0.00863548 0.00301102 0.000603571 0.00237113 0.000721649 0.000721649 0.00257732 0.00598073 0.0092447 0.00673039 0.00532475 0.00353843 0.00310108 0.00531572 0.0124061 0.00551138 0.00661919 0.0184944 0.0153108 0.00843075 0.0100309 0.0057063 0.00726002 0.00552518 0.00877402 0.00652448 0.00992289 0.00115945 0.00979849 0.00185567 0.00886598 0.00628866 0.00670103 0.00597938 0.00680412 0.00226804 0.00618557 0.00236327 0.00163776 0.00126628 0.00142131 -0.000333603 0.000247464 0.0017476 0.00444195 0.00223915 0.00642146 0.0079839 0.00230262 0.00255473 0.00677401 0.00655301 0.00203268 0.00495081 0.0085804 0.00782998 0.00938144 0.00979381 0.00865979 0.00154639 0.00257732 0.00752577 0.00896907 0.000927835 0.00226804 0.00319588 0.00505155 0.00762887 0.00412371 0.00515464 0.000103093 0.00237113 0.0101031 0.00618557 0.00979381 0.00690722 0.00927835 0.00618557 0.000206186 0.00618557 0.00958763 0.000206186 0.0028866 0.00701031 0.0043299 0.00546392 0.000206186 0.00824742 0.00762887 0.00206186 0.00783505 0.00752577 0.00536082 0.00494845 0.00749677 0.00458167 0.00626892 0.00652878 0.00147885 0.00446268 0.00199416 0.00312316 0.0022858 0.00988876 0.00318212 0.000503019 0.000399157 0.00424645 0.00592401 0.00801829 0.00699703 0.00968973 0.0057732 0.000824742 0.000721649 0.00948454 0.00319588 0.00845361 0.0057732 0.00701157 0.00876368 0.00523449 0.00171137 0.00136869 0.00729991 0.00299114 0.00451172 0.00261148 0.0029992 0.00142924 0.0013107 0.00729745 -0.000577589 0.000169448 0.0032567 0.0072415 0.0038611 0.00241612 0.00458326 0.00655185 0.00227613 0.00155685 0.00402062 0.00587629 0.01 0.00876289 0.00175473 0.00267584 0.00306997 0.000327397 0.000862418 0.00802608 -0.000300183 0.00454996 -0.000936609 0.00290868 0.00362197 0.0010402 -0.000176036 0.00130172 0.00209581 -0.000446893 0.00600203 0.00373056 0.00257095 0.0059885 0.00415204 0.00114451 0.00374785 0.00166841 0.0081704 0.00113402 0.00123711 0.00515464 0.000625941 0.00700836 0.00482384 0.00302725 0.000546184 0.000669896 0.00178761 -0.00096364 0.0013105 0.00484403 -0.00261454 -0.0020412 -0.000554041 -0.0036663 -0.00374613 0.004922 0.00167054 -0.000289942 -0.00134203 0.00569843 0.00794481 0.00468447 0.00893094 0.00245498 0.00894171 0.00286447 0.00927835 0.00865979 0.00824845 0.00137452 0.00940242 0.00691184 0.00509525 0.00372373 0.00609182 -0.00443835 -0.00538635 0.00174548 -0.00443695 -0.00702102 -0.00055098 0.00350562 0.00109209 0.0049193 -0.00519599 0.000998827 0.00434411 0.00338647 0.00856152 0.0090444 0.00969261 0.00537757 0.00218957 0.00646874 0.00948454 0.00711359 0.0039156 0.00719403 0.00576241 0.00563882 0.00736648 0.00706256 0.0071737 0.00209128 -0.000624027 -0.00814818 -0.00386484 -0.0050019 -0.00922974 0.0021253 0.00394251 0.00518932 -0.00436708 0.0012276 0.00793454 -0.00151127 0.00687552 0.00464408 0.00377195 0.00888628 0.00430225 0.000768105 0.00340182 0.00443188 0.00210775 0.00017612 0.00407591 0.00540387 0.00683361 0.00780438 0.0057555 0.00217795 0.000791813 -0.000589797 -0.00380406 -0.00202732 -0.00695895 -0.000299833 0.00275716 -0.000164028 -0.00185262 -0.00096365 -0.000515694 0.00307791 0.0086045 0.00060575 0.00648291 0.00648711 0.00267599 0.00987042 0.00712682 0.00498621 0.00104594 0.00182357 0.00800639 0.0073023 0.00810963 0.00448646 8.12652e-05 0.0043508 -0.00280574 -0.00184008 0.00426814 -0.0047768 0.00439376 0.0036058 -0.00324359 -0.00038354 0.00459857 0.00527572 -0.000336881 0.00151616 0.00873348 0.00328 0.0120365 0.00507474 0.00893043 0.00115678 0.00855654 0.00512642 0.00220006 0.00201223 0.00733557 0.0031539 0.00264196 0.00305501 0.00829845 0.00369587 -0.000122481 0.00347053 0.00318813 0.00299196 -0.0021564 -0.000314331 0.00229254 -0.00741982 -0.00179654 -0.00890034 -0.000353113 0.000259409 0.00411037 0.00667187 0.0064563 0.00661442 0.00567671 0.0019471 0.0014433 0.00301127 0.000301602 0.00225223 0.00317092 0.00671405 -6.27846e-05 0.00466863 0.00461366 0.00297986 0.00231232 -0.00647703 -0.00561717 0.00128435 0.00294273 -0.00203691 -0.00273011 -0.0035539 -0.00667328 0.000913735 -0.00476929 -0.00543443 0.00198358 0.00230369 0.00302521 0.00601013 0.0101737 0.00641702 0.00164948 0.00284572 0.00621759 0.00417422 0.0102386 0.00164722 -0.00153971 -0.00251503 0.000469697 -0.0106923 -0.00270717 0.0042821 0.000494102 0.00229084 0.00649699 0.011035 -0.000149779 -0.00438687 -0.000600985 0.000534342 -0.000770683 -0.00572446 0.00121092 -0.00361006 0.00351586 0.00153867 0.00759774 0.000754208 0.00371134 0.00194748 0.00448834 0.00436241 0.00324926 0.00554945 0.00414028 0.000893763 -0.000831683 -0.00886347 0.000294023 0.00377011 0.00356858 0.00610061 0.00883891 -0.00150931 -0.000126923 -0.0059355 -0.00512178 -0.00364609 0.00150765 4.11568e-05 0.00386875 0.00383803 0.000337119 0.00920534 0.00962878 0.00124909 0.0042268 0.00783144 0.00166102 0.00695473 0.00148204 0.00016852 0.00096517 0.00450476 -0.00146234 0.000636197 0.00126908 0.00137546 0.0111702 0.00725233 -0.00166136 -0.00354286 -0.00993916 -0.00819599 -0.00515149 0.00198968 -0.00403526 0.00186494 -0.00481651 -0.00457963 0.00382823 0.00614911 0.00165158 0.00649862 0.000309278 0.00938624 0.00657035 -0.000318617 0.00800777 0.00131582 0.00163888 0.00342732 -0.00351449 0.00535605 0.00433752 0.000793593 0.00810804 0.00222816 0.00256999 -0.00607205 -0.00729965 -0.00910224 -0.0070337 0.00356038 0.00142314 0.00516319 -0.0011778 0.0013986 0.00147482 0.00614162 0.0054313 0.00350557 0.000515464 0.00485326 0.00160312 -0.000887449 0.00454006 0.00494255 0.00655221 -0.00450252 0.00690404 0.00719352 0.00426964 -0.000447784 0.00617337 0.00202533 -0.000799452 0.000128159 -0.00642822 -0.00450785 -0.00197072 0.00378718 -0.00417577 -0.00229169 0.000176534 0.00255344 0.00550998 0.00224717 0.00591679 0.00957947 0.00979381 0.00186145 0.00151058 0.000653485 0.00626788 0.00216106 -0.00293011 -0.000595755 0.00401995 0.0040349 -0.00151462 0.00522283 -0.00108046 0.000173211 -0.0019897 -0.00629041 -0.0020286 -0.0047144 -0.000989797 0.00492075 0.00299177 0.00155808 0.00374476 0.00877016 0.00425799 0.00633166 0.0093572 0.00400921 0.00979381 0.00639316 0.00543218 0.00967983 0.00168098 -0.0014091 -0.00165659 -0.0071236 -0.0039735 -0.00678092 0.00204351 0.00337803 -0.00158924 -0.00430605 -0.00123033 -0.00599751 -0.00448809 -0.00592644 -0.00694111 -0.000535076 -0.00177372 -0.00178565 0.0058518 0.00515117 0.00705672 -0.000168096 0.000797346 0.00527031 0.00639175 0.00731959 0.00776285 0.00332042 -0.00152918 0.000326912 0.000136292 -0.00541106 -0.0103989 -0.00622001 -0.00966893 -0.00572488 -0.00974742 -0.00171287 0.00274607 0.00286919 -0.00783917 -0.00975616 -0.00754458 -0.0074567 -0.00333466 0.00509974 0.000869087 0.0111037 0.00856474 -0.000790513 0.00482556 0.00983148 0.00701031 0.00928562 0.00193155 0.00159339 0.00802741 -0.00115843 -0.000744807 -0.00208705 -0.00248414 -0.00623605 -0.00312139 -0.00438106 -0.010604 -0.00820959 -3.01768e-05 -0.00663479 -0.00733847 -0.00923242 -0.0110202 -0.00497805 -0.00616324 0.00552242 0.00711305 0.0104873 0.00336862 0.00893279 0.00587791 0.000132751 0.00938144 0.00599771 0.000417572 0.00760963 0.00470041 0.00214585 -0.00158297 -0.00712953 0.000921256 -0.000985202 -0.0110698 -0.00358709 -0.00436065 -0.00262051 -0.000170017 -0.0093717 -0.00907102 -0.000717608 -0.00363173 -0.00384403 -0.00228019 -0.00247479 0.0103562 0.0079486 0.00134977 0.00915147 0.00315494 0.000206186 0.00113402 0.00453608 0.0038423 0.000398038 0.000217899 -0.000626509 0.00563087 -0.00403997 0.00373573 -0.00481831 -0.0075161 0.000243107 -0.00599819 0.00253891 -0.00151432 -0.000879715 0.00028357 -0.00275953 0.00351804 -0.000668624 0.00273936 0.00254636 0.00917715 0.0086397 0.00585434 0.0057102 0.00145662 0.00329897 0.0056701 0.00989691 0.00442314 0.00577704 0.000892334 0.00450705 0.000463125 -0.00439774 0.00198564 0.000386322 0.00239114 0.00292996 0.000332072 0.00352967 -0.00528682 -0.00236132 0.0013624 -0.00141727 0.00104907 0.00139172 0.000798383 0.00542977 0.00786833 0.00279001 0.00964507 0.0067467 0.00924546 0.00618557 0.00319588 0.0071134 0.000237696 0.000336477 0.00369552 0.000978443 0.00503547 0.00525694 -0.00108498 0.00300165 0.00336662 0.00572858 -0.00373209 0.00504255 -0.00488054 0.00153297 0.00711305 0.000181814 0.00642442 0.00499169 0.00233252 0.00828954 0.00905596 0.00670529 0.00624358 0.00970802 0.00344649 0.00742268 0.0014433 0.00371134 0.000443958 0.00435493 0.0069265 0.00243897 0.00294386 0.00409653 -0.000234491 0.00639098 0.00614064 0.0101879 0.00130782 0.0074298 -0.000272858 -0.000623607 -0.000575968 0.00781915 0.00586412 0.0061606 0.00195689 0.00921183 0.00782431 0.0101554 0.00608888 0.00771217 0.000824228 0.00835052 0.000515464 0.00958763 0.00732196 0.00311315 0.00525066 0.0041778 0.00642108 0.00126387 0.00142637 0.00738677 0.00426168 0.00291583 0.00759003 0.00989896 0.000841917 0.0119795 0.0105088 0.0103916 0.00280935 0.00958481 0.00920839 0.00469593 0.00531665 0.00590148 0.00509182 0.00247377 0.00175203 0.0056701 0.00494845 0.00319588 0.00216495 0.00690732 0.00351256 0.00304504 0.00881968 0.00863671 0.00514508 -0.00129648 0.00233366 0.00379186 -8.99984e-05 0.0070554 0.00440084 0.00495934 0.00843343 0.00920594 0.00618555 0.00850726 0.0025888 0.00930834 0.00775856 0.00572505 0.00339109 0.00515464 0.00938144 0.00453608 0.00659794 0.00185567 0.00309278 0.00896907 0.00628866 0.00773113 0.00432719 0.00605986 0.00680452 0.000238052 0.00626714 0.00919851 0.00528128 0.000681059 0.00203392 0.00240279 0.00416002 0.00746325 0.00620729 0.000843735 0.00974696 0.00301215 0.0053876 0.00626546 0.00371134 0.00494845 0.00639175 0.00773196 0.00927835 0.00474227 0.00257732 0.0042268 0.00773196 0 0.00381443 0.00175258 0.000412371 0.00319588 0.00175258 0.00783505 0.00453608 0.00371134 0.00618557 0.00762887 0.00659794 0.00958763 0.00123711 0.0028866 0.00515464 0.000206186 0.00505155 0.000721649 0.000721649 0.0057732 0.01 0.0101031 0.00360825 0.00216495 0.00175258 0.00917526 0.000412371 0.00237113 0.00822649 0.00923815 0.00694073 0.00584167 0.0010015 0.00243748 0.00959846 0.00677861 0.00885549 0.0062939 0.00696464 0.00192195 0.00143675 0.00902745 0.000381492 0.00958391 0.0095849 0.00670082 0.00659794 0.0043299 0.00226804 0.00680412 0.000927835 0.00206186 0.000206186 0.00422613 0.0051546 0.00859343 0.00288331 0.00648779 0.00024185 0.00254636 0.00890083 0.00803467 0.000809421 0.00176056 0.00158323 0.00327467 0.00839499 0.00365316 0.000476996 0.00229589 0.00692791 0.00301695 0.00685561 0.00214747 0.00554827 0.00566191 0.00804124 0.00103093 0.00123711 0.000103093 0.00422777 0.00319138 0.00973303 0.00279822 0.00745231 0.00432754 -0.000110335 0.00555194 0.00260968 0.00233446 0.0010113 0.00395621 -0.000681576 -0.00151803 0.00115685 0.0013118 -0.000210332 0.00554654 0.00970777 0.00834628 0.00595519 0.00266019 0.00477652 0.00863347 0.00837203 0.00876289 0.00371134 0.00742268 0.00876618 0.00464041 0.00793844 0.00126034 0.0034839 0.00520103 -0.00188218 0.00438096 -0.00129345 0.00144542 -0.000254412 -0.00335208 0.00383522 0.00355228 -0.00362785 0.000488714 0.00224792 0.00249249 0.0106332 0.00936322 0.00441497 0.00856121 0.008338 0.00806247 0.00397173 0.00906448 0.00257732 0.00175258 0.00319633 0.00134625 0.00412508 0.000133538 0.0014511 0.00377668 0.00774291 0.00859949 -0.0064593 -0.00730309 -0.00750744 -0.0116081 -0.0118462 -0.0071933 -0.00959084 -0.00278165 -0.0070475 -0.00789037 0.00358559 0.00101222 0.00343639 0.00279151 0.0051343 0.00386386 0.00107285 0.00205142 0.00164948 0.00546366 0.00963246 0.00285513 0.0020177 0.00808327 0.00194217 0.00312105 0.00827872 0.00726642 -0.00406795 -0.00315616 -0.00395069 -0.00330247 -0.00825448 -0.0108337 -0.0104998 -0.00441219 0.00131189 0.00522456 0.0076162 0.00653946 0.00536097 0.00651972 0.00344412 0.00934651 0.00580519 0.00338419 0.000516789 0.00175605 0.00162098 0.0039322 0.00337846 0.00376584 0.00687873 0.0179715 0.0175322 0.00735693 -0.00194284 0.0011276 -0.000631289 -0.00855594 -0.00571284 -0.00292506 -0.0011987 0.00172126 0.007147 2.66027e-06 0.00490947 0.00150602 0.00460654 0.00306907 0.00870458 0.00876468 0.00570635 0.00566061 0.00835973 0.00442414 0.0078105 0.00193556 0.000496987 0.00774999 0.00406373 0.00990749 0.00874245 0.00834995 0.00750704 0.009002 0.00665516 0.00613084 0.00809557 0.00869087 0.00552882 0.00344594 0.000734217 0.00205874 0.000246001 -0.00224173 0.00409231 0.00823517 0.00490055 0.00746465 0.00842894 0.00401464 0.00103181 0.00314891 0.00325793 0.00278933 0.00800447 0.00569798 0.0015623 0.010808 0.014163 0.0139081 0.00939071 0.0111895 0.00364696 0.00415311 -0.000176395 0.00429399 -0.00132776 0.00178738 0.00168399 -1.95833e-05 -0.00176085 -0.00139526 0.00593339 0.00977917 0.00842018 0.00191386 0.00609257 0.00141962 0.00618557 0.00161867 0.00649033 0.00580105 0.00752247 0.00782107 0.00484127 0.0119148 0.0100987 0.00557843 0.0151219 0.0108309 -0.00288436 -0.00304045 -0.00526043 0.000910212 -0.00917004 -0.00570089 0.0022563 0.00844115 0.00171586 0.0045245 0.00426902 0.00747098 -2.77407e-05 0.00289591 0.00505459 0.007854 0.0085567 0.00697448 0.00281628 0.00273778 0.00674569 0.00896091 0.0137604 0.00400441 0.0084298 0.00685138 0.00289646 0.000266909 -0.00243388 -0.0104309 -0.00765972 -0.00079171 -0.00422407 0.000479411 -0.00052572 -0.0026891 -0.00116822 0.00553285 0.000235037 -0.00116859 0.00103263 0.0072608 0.00822209 0.00104365 0.00175258 0.0079288 0.00776492 0.00709756 0.00876662 0.00130056 0.0101064 0.0162858 0.0118392 0.0108317 0.00308273 -0.00719139 -0.00364144 -0.0131389 -0.00728516 -0.00889654 -0.00875112 -0.00421097 0.0064739 -0.00267362 0.00494025 0.00085472 0.00438043 0.00267432 0.00381193 0.00123883 0.008946 0.00558591 0.01 0.00921268 0.00204578 0.0030923 0.00669095 0.0110262 0.0110103 0.0167801 0.0123876 0.00301065 -0.00891338 -0.00912492 -0.0168927 -0.00782089 -0.0129999 -0.0115047 -0.00579663 -0.00734242 -0.00146479 -0.000470384 0.00227175 0.00813769 0.00487426 0.0018 0.00246748 0.00839194 0.00667302 0.00556304 0.00175258 0.00938652 0.000876106 0.00729288 -0.00324242 0.0063106 0.0132589 0.00469603 0.00671071 0.00172646 -0.00431099 -0.00569755 -0.0148063 -0.00882635 -0.00796677 -0.014102 -0.00856543 -0.0081204 -0.00663237 -0.00185503 -0.00454339 0.00632433 0.0104425 0.0111619 0.0114856 0.000545045 0.0101047 0.00597894 0.00154639 0.00556591 0.0053096 0.00367483 0.00561909 0.00739573 0.00946315 0.0077759 0.00645274 0.00443614 -0.00581942 -0.00261486 -0.00960444 -0.00843252 -0.0197501 -0.0147459 -0.0151024 -0.012832 -0.000693588 0.00393179 0.00269137 0.00714794 0.0065499 0.0110027 0.00573686 0.0058245 0.00211056 0.00966654 0.0056701 0.00422497 0.00581584 0.00501391 0.00345515 0.00871021 0.00393051 0.00218812 0.00262919 -0.00070586 -0.00350508 -0.000899108 -0.0067212 -0.00893874 -0.0148847 -0.016952 -0.0152968 -0.00569373 -0.00439786 0.00397317 0.00235328 0.00172813 0.0099114 0.00786826 0.00107322 0.00427772 0.000129548 0.00677271 0.00536082 0.00608218 0.00867209 0.00699545 -0.0020849 -0.000182789 0.00789414 -0.000783256 0.000684406 0.00252431 0.000243376 -0.000151215 -0.0145733 -0.0165792 -0.0157007 -0.0114038 -0.0123209 -0.00860583 -0.00400171 -0.00218275 0.0085514 0.00122148 0.00626568 0.00502097 0.00921153 0.00581706 0.00622494 0.00740919 0.00835052 0.00969072 0.0100849 0.00264774 0.00393185 -0.00366023 -0.000750309 0.00151952 -0.00416855 -0.00583675 -0.00803827 -0.011325 -0.00778406 -0.00737803 -0.00272171 -0.0069297 -0.00126691 -0.00660063 -0.00441873 0.00413299 0.00627627 0.00942194 0.00912491 -0.000884453 0.00967348 0.00770266 0.00921598 0.00224961 0.00257732 0.00423359 0.00446317 0.00419121 0.00181582 -0.00355649 0.00216006 0.00296338 0.00356465 -0.00782065 -0.0172308 -0.0111844 -0.0096073 -0.0103018 -0.00474025 -0.00854459 -0.00434812 -0.00443547 -0.00136008 0.00742726 0.00233914 0.00252931 0.00213637 0.000954383 0.00188751 0.00547181 0.00221956 0.00391154 0.00515464 0.0028006 0.00271383 0.00228086 0.0051419 -0.00334886 -0.000934493 -0.00510961 -0.00069453 -0.00737753 -0.0117636 -0.0112757 -0.00408608 -0.00521238 -0.00417 -0.0106298 0.00188684 0.00150186 0.00310296 0.00780442 -0.00104602 0.00183644 -0.00291712 0.00751461 0.00881418 0.00856604 0.00615221 0.0071134 0.00515464 0.00309278 0.00488607 0.00410668 0.00221984 0.000713877 0.00275587 0.00137882 -0.00465092 -0.00348262 -0.00903422 -0.00300715 -0.0064775 -0.00660651 -0.00067769 0.000177617 -0.00239237 -0.00457159 0.000503363 0.00641388 -0.000407777 0.00475215 -0.00123819 0.00516757 0.00429164 0.00861448 0.00413562 0.00175258 0.00453608 0.00793814 0.00344776 -0.000368133 0.00290466 0.00429346 0.000546371 -0.000667292 -0.00727975 -0.00459295 0.00108978 -0.00530042 -0.00404875 -0.00387928 -0.00646503 0.00486967 0.0075564 0.00808121 0.0130514 0.0125994 0.00567251 0.00844621 0.00618143 0.00155589 0.00757992 0.00956306 0.00871309 0.0014433 0.0042268 0.00628866 0.00376407 0.00267829 0.00748429 -0.00116005 0.00106761 0.00193943 0.00443974 0.0020309 0.00318072 -0.000786668 -0.00458369 -0.00583973 0.00522812 0.00552182 0.00775788 0.00809354 0.0078783 0.0116669 0.00404323 0.00248538 -0.000437713 0.00174403 0.00419552 0.00121304 0.00663128 0.0028866 0.00134021 0.01 -4.9809e-06 0.00661525 0.00491135 0.00745194 0.000668291 0.00384815 0.00811416 0.00436183 -0.000486994 0.00465286 0.0047585 0.00371313 -0.0012283 0.00683748 0.00969573 0.0100526 0.00556442 0.015787 0.0103287 0.00431671 0.00604692 0.00182966 0.00528053 0.00168347 0.00525551 0.00247423 0.00371134 0.00618557 0.00865455 0.00513752 0.00660248 -0.000616722 0.000946811 0.00277596 0.00575626 0.00106534 0.00667033 0.00850988 0.00988083 0.00761569 0.00620643 0.0145476 0.0122124 0.0119904 0.0110212 0.0107145 0.00621523 0.00376947 0.00626803 0.0074539 0.00216872 0.00205988 0.00123475 0.00340206 0.00206186 0.00412371 0.00340206 0.0014432 0.00464879 0.00967528 0.00142716 0.00851512 0.0070285 0.00079844 0.00694105 0.00758058 0.0089194 0.00161575 0.0034275 0.00823016 0.00258764 0.00378069 0.0101477 0.0124886 0.00593825 0.0021927 0.00719193 0.0032068 0.00545058 0.00103093 0.00969072 0.00814433 0.00876289 0.00412371 0.0014433 0.00865979 0.00721649 0.00474898 0.00217791 0.00188354 0.005955 0.0012981 0.000610639 0.00135874 0.00213829 0.00098131 0.00643424 -2.92232e-06 0.010373 0.00218374 0.00784159 0.00984164 0.00226799 0.000769364 0.00811339 0.00260218 0.00381443 0.00783505 0.00525773 0.00824742 0.00402062 0.00402062 0.00608247 0.0014433 0.00113402 0.00247423 0.00515464 0.01 0.00237113 0.01 0.00752577 0.0102062 0.00896907 0.00216495 0.00505155 0.00371134 0.00350515 0.00134021 0.00453608 0.00639175 0.0102062 0.00773196 0.00164948 0.00371134 0.00639175 0.00793814 0.0028866 0.00309278 0.00731959 0.00515464 0.00979381 0.00381443 0.00546392 0.00515464 0.007967 0.0027982 0.0040362 0.00290524 0.00761017 0.00708405 0.0071324 0.00559878 0.00743115 0.00484487 0.00735096 0.00678315 0.00834944 0.000652465 0.00559681 0.00827838 0.0100118 0.0086606 0.00154639 0.00443299 0.00835052 0.00257732 0.00989691 0.00175258 0.0102062 0.00360607 0.00742177 0.00785985 0.00638974 0.00762906 0.00969336 0.0081888 0.00191372 0.00556689 0.00967766 0.00337303 0.0117368 0.00396132 0.01238 0.00666289 0.00705595 0.00418609 0.00433931 0.00892653 0.00490052 0.00861287 0.0092572 0.0076136 0.00659794 0.00731959 0.00247423 0.00969072 0.00659734 0.00205753 0.0016792 0.00411858 0.00943259 0.00534229 0.0117982 0.0124291 0.0128451 0.011052 0.00844881 0.00393448 0.0108564 0.00681232 0.0039463 0.00391802 0.00220348 0.00895439 0.0113622 0.00158346 0.00894757 0.00656886 0.00446923 0.0012999 0.00349947 0.00134021 0.00608247 0.0102062 0.00164743 0.00309219 0.0109414 0.0051439 0.0110617 0.00926217 0.00394846 0.00196524 0.00347294 0.00860362 0.00700712 0.00946644 -0.000121073 0.000853181 0.0074307 0.00927478 0.00644849 0.00183355 0.00902738 0.00813596 0.0111487 0.00215379 0.00358527 0.00860056 0.00131903 0.00279192 0.00969072 0.00762887 0.00556673 0.00955998 0.00931635 0.0083075 0.00460418 0.0087417 0.00971991 0.00776441 0.00811874 0.00375553 0.00187187 0.00630923 -0.000145966 -0.00122698 0.00106709 -0.00330213 0.00335815 0.00395848 0.00649032 0.00394575 0.006932 0.00413206 0.00489142 0.00500344 0.00822617 0.000215863 0.00618557 0.00298928 0.00415053 0.00730007 0.00573602 0.00563031 0.00459187 0.00182814 0.010219 0.0054673 0.00472158 0.00277419 0.00431804 -0.00567808 -0.00663743 -0.00158018 -0.00332244 0.000423967 -8.99114e-05 -0.00105219 0.00311124 0.0028369 0.00702931 0.0039865 0.00346299 0.00013912 0.00887592 0.00868343 0.010001 0.00350255 0.00173092 -0.000268988 0.000936941 0.00683918 0.00248923 0.0103662 0.00321668 0.00200034 0.000933921 -0.00321112 -0.00778602 -0.00749921 0.000304251 0.00240342 -0.000471273 -0.00488068 -0.00338895 -0.00155405 -0.000896274 -0.000394216 0.00590381 0.000824235 0.00522249 0.00630442 0.00593951 0.00754105 0.0093786 0.00920179 0.00590343 0.00711551 0.00265217 0.00638774 0.0124321 0.00215524 0.00552421 0.00390413 -0.00850986 -0.00752293 -0.00996338 -0.0111255 -0.00176097 -0.00532407 -0.00169488 -0.0020663 0.0032291 0.00475283 -0.00343909 0.00194305 -0.00267921 -0.000282862 0.00874278 0.0010215 0.00619179 7.10848e-05 0.000516117 0.00895004 0.00289279 0.00720351 0.00400929 0.011382 0.00850075 0.00993927 0.00419578 -0.00284804 -0.00710333 -0.000152527 -0.00369141 -0.00846032 -0.00771544 -0.00510874 -0.0084037 -0.00103572 -0.00588358 0.00319842 -0.00354761 0.00238209 0.00826502 0.00848206 0.00471609 0.00428804 0.000933048 0.00103394 0.0014433 0.00721611 0.005129 0.00551418 0.0114581 0.00809541 0.006171 0.00786001 0.00311232 -0.00175272 -0.00329243 0.00124496 -0.00356971 -0.00258316 -0.00829587 -0.000416291 0.00372987 0.000309328 -0.0059096 -0.00344701 0.00195332 0.000240854 0.00239313 0.0045113 0.00410994 -0.000847235 0.00319539 0.0102027 0.00278351 0.000710325 0.00411749 0.00955807 0.00532333 0.0141242 0.00686927 0.00745935 0.00326265 0.00344914 -0.00264114 0.00191632 0.00109521 -0.000506193 0.00633858 0.0079622 0.00553612 -0.00436868 0.00166722 -0.00312989 -0.00476917 0.000603416 0.00175779 0.00403858 0.00829477 0.00553414 0.00637941 0.00246485 0.000412371 0.00506715 0.000224117 0.00144464 0.000808898 0.00497942 0.00792467 0.0024651 0.00677716 0.00235694 0.00326516 0.00360818 2.99466e-05 0.00345342 0.00213265 0.00345502 0.00478438 -0.00294872 -0.00376185 -0.00172728 -0.00116338 0.00540688 0.00834402 0.00510618 0.00282466 0.00829811 0.000964008 0.00936034 0.00195876 0.000863837 0.00603369 0.00397947 0.00356261 0.00910078 0.0121213 0.00692169 0.000105621 0.00337356 0.00236794 0.00401422 -0.0034596 -0.00350225 -0.00516439 0.00543427 -0.000519971 0.000504949 -0.000496363 -0.00338616 0.00278978 -8.15682e-05 0.00783516 0.00396883 0.00107354 -7.54732e-07 0.00112405 0.00737283 0.01 0.00929432 0.0020326 0.00898097 0.00862286 0.0111942 0.00520432 -0.000113856 -0.00149281 0.00274544 -0.000943924 -0.0060614 -0.00706522 -0.00274358 -0.000176523 -0.00388714 -0.00542664 -0.00204636 -0.00140814 0.000742945 -0.00133958 0.00385145 0.00549343 0.00508091 0.00387137 0.00977012 0.00919708 0.00092229 0.00175258 0.00597374 0.00958989 0.0064726 0.00326611 0.000535698 0.00596814 -0.0028123 5.75865e-05 -0.00499659 -0.00426525 0.00417176 0.00421439 -0.0032422 -0.0094464 -5.46949e-05 -0.00118243 0.00349663 -0.00118087 0.0013723 -0.00111228 0.00317121 -0.00433549 0.00254227 0.00289365 0.00911443 0.00152008 0.00709267 0.00608247 0.00679825 0.00510205 0.00419566 0.00536168 0.00198715 -0.00188922 -0.003543 0.00460926 -0.0017897 0.00244025 -0.00149848 0.00356323 -0.00649752 0.00270442 0.00422856 -0.00232185 0.00415331 0.00381745 0.00146449 0.00543463 -0.00634185 -0.003759 -0.00167652 0.00721114 0.00482355 0.00586672 0.00554005 0.0056701 0.00247298 0.00161669 -0.000164828 0.00188463 0.00259726 0.00360178 -0.00367041 0.000989189 0.00371249 0.00301616 0.00115088 -0.00416982 -0.00572542 -0.00293251 -0.000812159 0.00324688 0.000353683 -0.00648987 -0.00170788 0.00690082 0.00103612 -0.0021182 0.0029019 0.00380433 0.00744937 0.00342056 0.00935116 0.00463918 0.01 0.00882466 0.00422719 0.000634047 0.0039529 -0.00072594 0.00228999 0.00253737 -0.00460488 0.00467531 -0.00214425 -0.0030141 -0.00493227 -0.00571673 -0.00193783 -0.00199721 -0.00128885 0.00236485 -0.00194856 0.000676119 0.00421926 0.000655398 -0.00148331 0.00623818 0.00890646 0.00456893 0.00726332 0.000309278 0.0045342 0.00012293 0.00132019 0.00240905 -0.00224709 0.00354532 0.00305816 8.07084e-05 -0.00384678 -0.00820704 -0.00113648 -0.00797722 -0.00273317 -0.00264999 -0.00388343 0.000250579 0.00151013 -0.00435463 -0.00183077 0.00520011 0.000110883 -0.00522042 0.000610308 0.00533735 0.00017729 0.00673143 0.0026472 0.000412371 0.00298496 0.00860072 0.0016379 0.00779925 0.000603133 -0.00245867 -0.00414101 -0.00656111 -0.00506032 -0.00102826 -0.00697027 -0.00887261 -0.00293704 -0.00455294 -0.000996744 0.000292904 0.00580847 0.0023729 -0.00289522 -0.000728504 0.00329257 0.0022593 0.00267845 0.0039599 0.00550249 0.00575024 0.00391753 0.0056701 0.00649485 0.00647088 0.000298056 -0.00110511 0.0049484 -0.00140625 -0.00383726 -0.00366972 -0.00123346 -0.0012744 -0.000649345 -0.00422593 -0.000840879 -0.00264894 0.0038746 -4.94993e-05 0.00504216 0.00042018 0.00150227 -0.00210372 0.00208799 -0.00202472 0.00762621 0.00386627 0.00253976 0.00111665 0.00938144 0.000103093 0.00969072 0.00256806 0.00247969 0.00552689 -7.15083e-05 0.00669906 0.0025136 0.00335964 -0.00557616 -0.00601566 -0.00543953 0.00106063 -0.00559724 -0.00267414 -0.00498269 -0.0016055 0.00346628 0.00168718 0.0010528 -0.0011967 0.0088331 0.00104839 0.000878068 0.00449606 0.00889239 0.0101772 0.00639175 0.0101031 0.00371134 0.00661962 0.00162761 0.00805235 0.00476722 0.00402616 0.000406566 0.00630736 -0.0035307 -0.0010561 0.00168085 0.000685527 -0.00146021 2.97243e-05 0.00742295 0.00964251 0.00253081 0.006752 0.00198734 0.00350994 0.0125413 0.00295954 0.00722162 0.00951238 0.00534261 0.0021453 0.00742268 0.00309278 0.00793814 0.00715427 0.00197646 0.00501566 0.00890194 0.00222297 0.002589 0.00467618 0.00612397 -0.000136811 -0.000361208 0.00737489 0.0019066 0.00407535 0.00223934 0.00249899 0.010346 0.00579724 0.00282535 0.00536308 0.00653649 0.00876058 0.00383433 0.00474441 0.00446913 0.00339962 0.00247423 0.00113402 0.00804124 0.00380832 0.00366483 0.00944269 0.00678273 0.00247141 0.00727313 0.00837076 0.00689718 0.00316564 0.0104446 0.00140372 0.0022513 0.000214247 0.00992745 0.0105738 0.00307077 0.00147556 0.00616578 0.00590699 0.00613778 0.00342364 0.00699758 1.05101e-05 0.00412154 0.00174998 0.00793814 0.00103093 0.00113402 0.00948454 0.00371176 0.00691748 0.00609833 0.00575517 0.00703167 0.00432241 0.00767483 0.00321275 0.00831005 0.00728394 0.00694265 0.00999215 0.00306605 0.000890792 0.00517287 0.00415974 0.00810413 0.00672632 0.00853028 0.00360664 0.00975689 0.00824589 0.00340206 0.00927835 0.00309278 0.00979381 0.00876289 0.00979381 0.00515464 0.00628866 0.000726203 0.0027921 0.0047849 0.00638421 0.0034024 0.00610554 0.00493521 0.00555303 0.00438236 0.00599505 0.00618072 0.0083265 0.00159577 0.00600524 0.000328813 0.000429134 0.000914011 0.00566399 0.00211061 0.00938144 0.00298969 0.0042268 0.00690722 0.00536082 0.0101031 0.00659794 0.00649485 0.00226804 0.00175258 0.0102062 0.00164948 0.00391753 0.00185567 0 0.00793814 0.00340206 0.00350515 0.00329897 0.0014433 0.00268041 0.00649485 0.00103093 0.0042268 0.0071134 0.000927835 0.00907216 0.000618557 0.00134021 0.0014433 0.000412371 0.00927835 0.0042268 0.01 0.00690722 0.0071134 0.00175258 0.00670103 0.0028111 0.000879477 0.00832369 0.00343773 0.00682123 0.0101321 0.00524701 0.00112108 0.00429888 0.00479274 0.000454645 0.0037332 0.00743914 0.00438912 0.0098339 0.000122766 0.00816114 0.00422813 0.00701031 0.00979381 0.00886598 0.00927835 0.000927835 0.00917526 0.00948454 0.00361246 0.00938289 0.00285764 0.00633763 0.0102902 0.00309135 0.00758915 0.0101538 0.00467176 0.00258797 0.00268712 0.00466256 0.00892045 0.000776131 0.00233425 0.00765962 0.00912529 0.00339586 0.00650972 0.00219527 0.00917529 0.00287073 0.00989088 0.00948454 0.00237113 0.00453608 0.00298969 0.00443326 0.00372799 0.00121338 0.00672572 0.00451226 0.0104578 0.00681584 0.00166235 0.00857751 0.00465132 0.000802651 0.00587682 0.00050479 0.0057975 0.00695925 0.00485318 0.00267412 0.00944703 0.00486974 0.00928303 -1.62312e-05 0.00891427 0.0082266 0.00756353 0.00393223 0.0042268 0.00381443 0.000206186 0.00855763 0.00876793 0.00228251 0.0028689 0.00639804 0.00404482 0.00147743 0.00734048 0.00655417 0.00412533 0.0023282 0.00323322 -0.00019952 0.00395595 -0.00404903 -0.00488345 -0.00273278 0.0066446 0.00708206 0.00243796 0.00261745 7.0367e-06 0.005612 3.80953e-05 0.00714549 0.00907132 0.00587629 0.00824742 0.00649497 0.00693684 0.00513428 0.00317748 0.00842812 0.00976278 -0.000784653 0.00493533 -0.00208559 0.00342572 -0.00010495 -0.00574108 -0.00351548 -0.00676663 -0.00516752 -0.0035697 -0.00532378 0.00230022 -2.34945e-05 0.00140215 0.00427784 0.000652349 0.005314 0.000439015 0.00892811 0.00288614 0.00752577 0.00340234 0.0080524 0.00104741 0.000834322 0.00635798 0.00342293 0.00461107 0.00285272 0.00015665 -0.00534184 -0.00303016 0.00140962 -0.00349202 0.000711317 -0.00463797 -0.000114256 0.00308716 -0.00389653 -0.0050283 0.00184735 -5.26758e-05 0.00255924 -0.00126981 0.00946749 0.00149462 0.00907143 0.00268917 0.000824552 0.00660005 0.00179652 0.000893139 0.00780585 -0.000994495 -0.0029328 0.000829795 -0.00122583 0.00104913 -0.000154671 0.00305151 0.00850334 0.00517154 0.00857861 0.000607018 0.00640091 -0.00437054 -0.00817524 -0.00618533 -0.00181324 0.00252067 -0.00124047 -0.000521375 0.00373643 0.00816257 0.00364048 0.00856615 0.00537137 0.00931287 0.0071374 0.00267734 0.000660773 0.00067105 -0.00333515 0.00310098 0.00341051 0.00574514 0.00312821 0.00433326 0.00836836 0.00413264 0.00962615 0.00307266 0.00316937 -0.00479427 -0.00834781 -0.00511773 8.93785e-05 -0.00208242 -0.00400018 0.000444134 0.00372024 0.00637576 0.00021991 0.00093404 0.000618431 0.00331604 0.00703352 -2.64992e-05 0.00680778 -0.000519311 0.00311883 0.00807679 0.00155734 0.00157991 -0.00266049 0.000248801 -0.00239587 0.00203015 0.00857202 0.00681259 0.00260236 -0.00777601 -0.00592187 -0.00342977 -0.0103227 -0.00268362 -0.00623116 0.00198169 0.00954194 0.00173018 0.00728343 0.00609732 0.00412371 0.00321362 0.0034897 0.00647086 -0.00195973 0.00012559 0.00203932 0.00368854 0.00270584 -0.00810134 -0.00216545 -0.0007463 -0.0036975 0.00670294 0.00318384 -0.00298488 -0.00828 -0.00874169 -0.00571365 -0.00431471 -0.00166397 -0.0093768 0.00073346 0.00657551 0.00322588 0.00898937 0.00644639 0.00731765 0.00185567 0.00845706 0.00068945 0.00866797 0.00804945 0.0056325 0.00562986 0.00293195 0.000502021 -0.00598575 -0.00663633 0.00655964 0.00446595 0.00362621 -0.00151506 0.00381813 -0.00408152 -0.00710162 -0.00375228 -0.0048291 -0.00190764 -0.00489844 -0.00501074 0.000177327 7.40857e-05 0.00237862 0.00236102 0.00588536 0.00206186 0.00695778 0.00775123 0.00502111 0.00831207 -0.00111174 -0.00178088 -0.00390166 0.00231065 -0.00513061 0.00127906 0.00349469 0.000871526 0.00536197 0.0109852 0.00683112 0.000772057 -9.72726e-05 0.00251671 -0.000759933 -0.00560429 0.00242979 -0.00217456 0.00339219 0.00303781 0.00491756 0.000859884 0.00930806 0.00350515 0.00513451 0.00312815 0.00125542 0.00276015 0.00186376 0.00330865 0.00389164 0.00575403 -0.00112468 0.00506231 0.00299965 0.0120028 0.0117512 0.0101041 -0.000976746 -0.00179336 -0.00329852 0.000224137 0.00587094 0.00251872 0.000540763 0.000589332 0.00796268 0.00661198 0.00819745 0.0069017 0.00577948 0.000103093 0.0101052 0.00498277 0.000863573 0.00698641 0.00617324 0.00723729 0.00240043 0.00155041 -0.000937383 0.000520992 0.000127739 0.00130787 -0.00481786 -0.00524761 -0.00786598 -0.00570761 -0.00537598 -0.00854334 -0.00210668 0.00144512 0.00230821 0.00626164 0.00376615 0.00470898 0.00327583 0.0055185 0.000516163 0.01 0.00134943 0.00893856 0.00349768 0.00747297 0.001455 -0.00106923 0.00080097 -0.00275838 -0.00374858 -0.0027358 -0.00660574 -0.0089151 -0.00648965 -0.011457 -0.0129834 -0.0159464 -0.00687832 -0.00547187 0.00201169 0.00785104 0.00215114 0.00587328 0.00770142 0.00783227 0.00516747 0.00433985 0.00307093 0.00773196 0.00990352 0.003733 0.00537641 0.00208224 -0.00119951 0.0011797 -0.00189633 -1.15751e-05 0.00163707 -0.000746603 -0.00420071 -0.000963054 -0.00409417 -0.00692886 -0.00955193 -0.0168315 -0.0103084 -0.000296492 0.00192791 0.00399606 -0.000204798 0.011074 0.00553386 0.00822519 0.00381113 0.00367915 0.00913665 0.000103093 0.00659961 0.000323295 0.00872095 0.00672658 0.00211529 -0.00522122 -0.00829144 0.000761144 -0.00729035 -0.00819574 -0.000882264 -0.00388372 -0.0091209 -0.00664867 -0.00473709 -0.0126345 -0.0103606 -0.00488463 0.00141497 -0.00118611 0.0025776 0.00784397 0.00513815 0.00209575 0.00113878 0.0042073 0.0070071 0.0085567 0.000927835 0.00648925 0.00489946 0.00171482 -0.00583954 -0.00289539 -0.00853774 -0.00572677 -0.00437008 -0.00572694 -0.00999746 -0.00508284 -0.0104709 -0.00491257 -0.00620975 -0.00714395 -2.14385e-06 -0.0013467 -0.00377649 0.00140585 -0.00206215 0.00675786 0.00304191 0.00512811 0.00618624 0.00241776 0.00272308 0.00793814 0.00835551 0.0051123 0.00532165 0.00540485 0.00136182 -0.000530946 -0.00680788 -0.000953072 -0.00553213 0.00082848 -0.00724325 -0.00469372 -0.00249106 -0.00410988 -0.00167079 -0.00365358 0.000950026 -0.00419481 -0.00473289 -0.00319347 0.0030162 0.000484154 0.00198272 0.00688531 0.0039036 0.00130403 0.00871859 0.00556701 0.00826001 0.00330823 0.00682308 0.00448094 -0.00252526 -0.00599862 -0.0018929 -0.00551905 -0.00344571 0.0032677 -0.00311438 0.00106848 0.00422283 -0.00259918 0.00162801 -0.0018476 0.00439672 0.00116299 -0.0020111 -0.00216546 -0.00163686 0.00107853 0.00126957 0.00575779 0.00437814 0.00439508 0.00474227 0.00762887 0.000515464 0.0020138 -0.000419346 0.00114348 0.000512745 -0.00128255 -0.00392327 -0.00257725 6.3212e-05 0.00458593 0.00434905 -0.00179066 -0.0022366 0.0020629 -0.00201664 0.00406097 -0.00235016 0.00282202 0.0039672 0.00182761 0.00272625 -0.000192857 0.00590001 0.00439919 0.00305582 0.00318098 0.00958763 0.000618557 0.00154639 0.00869731 0.00555372 0.00824231 0.000308165 0.00578993 0.00397833 -0.00289095 0.00198788 0.00117007 0.00112871 0.00297077 0.00596417 -0.000403825 -0.00232326 -0.00125856 -0.000252829 -0.00107656 0.00453319 -0.00189135 0.00608569 0.00813589 0.00976106 0.000892641 0.00857493 0.0082801 0.0057732 0.00154639 0.00948454 0.00625797 0.00380284 0.00709551 0.00491055 0.00696454 0.00880521 0.00238505 0.000305454 0.00736524 0.001967 0.00466565 0.00539393 -0.00648558 0.0021404 -0.00205318 -0.00032772 0.00425362 0.00671075 -0.00209791 0.00595182 0.00328483 0.0102012 0.0059246 0.00995893 0.00455552 0.00164948 0.00762887 0.00340206 0.00544536 0.0103388 0.00884267 0.00760703 0.00622437 0.00580783 0.00175382 0.00841664 0.0034817 0.000643822 0.00613053 0.00807936 0.00131291 0.0081366 0.00479532 0.00722258 0.00434748 0.00494732 0.000350824 0.00199652 0.00287213 0.00874716 0.00568182 0.00047399 0.00845266 0.00319588 0.00731959 0.00618557 0.0060898 0.00427652 0.00208148 0.00344632 0.00925357 0.00318332 0.00591483 0.00868717 0.00526569 0.00307657 0.00777121 0.00915132 0.00696855 0.00413971 0.00370987 0.0032046 0.00254556 0.00740058 0.00344766 0.00685526 0.00110015 0.00643077 0.00622436 0.00639091 0.00938043 0.00804124 0.0071134 0.00927835 0.00134021 0.00484581 0.000423597 0.00627643 0.00805926 0.00835804 0.00111082 0.000724445 0.00383595 0.00485096 0.00468588 0.0085511 0.00553453 0.00807212 0.0106586 0.00109129 0.00657295 0.00234361 0.00182914 0.00168269 0.00438564 0.00937105 0.00351212 0.00185567 0.00680412 0.00443299 0.0028866 0.00298969 0.00721649 0.00474227 0.00216495 0.000823879 0.00041349 0.00514056 0.00847861 0.00648795 0.00290086 0.000668643 0.0101829 0.00677897 0.00767899 0.00141523 0.00740445 3.61187e-05 0.00611239 0.00532613 0.00971792 0.00165026 0.00507137 0.00989289 0.00618557 0.00597938 0.00628866 0.00773196 0.00979381 0.00865979 0.00278351 0.00278351 0.00278351 0.00731959 0.00412371 0.00701031 0.00948454 0.00113402 0.00587629 0.00525773 0.0102062 0.01 0.00958763 0.000721649 0.00298969 0.00680412 0.00865979 0.00443299 0.00536082 0.00268041 0.00917526 0.00783505 0.00556701 0.00773196 0.00443299 0.00412371 0.00989691 0.00865979 0.00278351 0.00391753 0.00587629 0.000927835 0.00420744 0.00852165 0.00397411 0.00576124 0.00855363 0.00772734 -1.71392e-05 0.00238738 0.00797172 -9.07427e-05 0.00965399 0.00807772 0.00616279 0.00282433 -7.35891e-05 0.008426 0.00925942 0.00546321 0.00783505 0.00453608 0.00278351 0.00268041 0.00391753 0.00773196 0.00164948 0.000307955 0.0098967 0.00979949 0.0024169 0.00152411 0.00288711 0.00714607 0.00321053 0.00707652 0.00355779 0.00102346 0.00670586 0.00273525 0.00748114 0.0020962 0.0029767 0.00862367 0.00419755 0.00632821 0.000541273 0.00652831 0.00139883 0.0044353 0.00835052 0.00690722 0.00350515 0.00226804 0.00515679 0.00999136 0.00453603 0.00796563 0.00690286 0.000162285 0.00506312 0.00105701 0.000719933 0.0050227 0.00575362 0.000198463 6.22845e-05 0.00171586 -0.00150883 0.00568664 0.00279306 0.00015532 0.000517019 0.0060426 0.00876875 0.00166325 0.00314283 0.00566013 0.00976498 0.00701031 0.000412371 0.00453608 0.00454345 0.00474202 0.00709445 0.00459565 0.0016931 0.00764562 0.00695408 0.0089339 -0.000528723 0.00493584 0.00798165 -8.90627e-05 0.00512606 -0.000848793 0.000466771 0.00156636 -0.00142941 0.000364944 0.00370427 0.00257114 0.00706388 0.00293827 0.00486623 0.00520473 0.0055049 0.00383674 0.00494845 0.00329897 0.00639277 0.00776402 0.00593769 -0.00050958 0.00273304 0.00422859 0.00593956 -0.00161107 0.00255883 -0.000450419 -0.00228418 0.00125654 0.0063187 0.00313171 0.00156958 -0.00191127 0.00441107 0.00362169 0.0079672 0.00500632 0.00929968 0.0100723 0.000404147 -7.81762e-05 0.00274834 -1.85551e-05 0.00701031 0.00113378 0.0052053 0.00613732 0.0059326 0.00389694 0.00827208 0.00174656 -0.0038297 0.000859449 -0.00337159 -0.000440081 0.00152654 -0.00554241 -0.00741474 -0.00459968 -0.000284187 -0.00314505 0.00540665 0.00729213 0.0071179 0.00460801 0.0115555 0.0115119 0.00973044 0.00699317 0.00654794 0.00101084 0.00453579 0.00267152 0.00121294 0.00205628 0.00645642 0.00145368 0.00642614 -0.000796035 0.00102505 0.000681414 -0.00301391 -0.00263367 0.00249943 -0.00173148 -0.00416595 -0.00396736 0.000152561 -0.00072293 -0.00398524 0.00398953 0.00410158 0.0075361 0.00449192 0.0113949 0.00677271 0.00823017 0.00306184 0.0101271 0.000414123 0.00814502 0.00245593 0.00423132 3.16717e-05 0.00696119 0.00466855 -0.000547333 0.00066313 0.00193875 -0.00628246 -0.00427339 -0.000915436 -0.00321574 -0.00551767 3.73114e-05 -0.0084789 -0.00832218 -0.000945462 0.00340751 0.00426604 0.00146257 0.00828225 0.0128176 0.00861842 0.000618954 0.0031639 0.00948583 0.00835032 0.00567519 0.00156652 0.00608234 0.00469476 0.00399185 -0.00158842 -2.93718e-05 -0.0040347 -0.00189675 -0.00396542 -0.000283448 0.00227296 0.00363398 -0.00412622 -0.000492087 -0.00363979 -0.00917135 -0.00225262 0.000714493 -0.00392187 0.00638209 0.00720663 0.0136026 0.00633403 0.00353456 0.00259594 0.00617297 0.00226804 0.00465379 0.00213613 0.0022308 -0.000926191 0.00577732 0.00245576 0.000601908 -0.0029682 -0.00587835 0.000284261 -0.00188022 -0.00063419 -0.00694158 -0.00279438 -0.00282713 -0.00178522 -0.00230295 -0.00322053 -0.000238334 -0.00585209 0.00923333 0.0098026 0.00884008 0.00753531 0.00830832 0.00393975 0.0101031 0.00876289 0.00886939 0.00877416 0.00120945 -0.00069587 0.00537817 0.00291644 -0.00162251 0.000731567 -0.00104561 -0.00168876 -0.00573696 -0.00555907 -0.00903061 -0.00591639 -0.00525047 -0.00373893 -0.00784544 -0.00464106 -0.0056329 0.00207753 0.00895127 0.00793423 0.00928924 0.00107055 0.0061579 0.00419206 0.000314489 0.00309278 0.00124058 0.00423459 0.00664707 0.00662046 0.0069072 -0.000713059 0.00484914 -0.00112532 -0.00290537 -0.00594709 -0.00636968 -0.0050513 -0.00808775 -0.00456441 0.000424224 -0.00370563 -0.00726603 -0.00295688 -0.0040519 0.00300891 -0.000298186 0.000680621 0.00743976 0.00329452 0.0061927 0.00672862 0.00495687 0.00237113 0.00824784 0.00123725 0.00160425 0.00200084 0.00165815 -0.00328498 -0.00183254 -0.00322373 -0.00416965 -0.00100748 -0.00596109 0.00346268 -0.00179647 -0.00647958 -0.00623285 -0.00159794 -0.0120707 -0.00506092 -0.000120338 0.000790562 0.00346089 0.00299955 0.000670587 0.00191819 0.00678905 0.00218005 0.00701749 0.00948454 0.00772452 0.00309626 0.0095527 0.00604362 0.00307919 0.000508182 -0.00353571 0.00456041 -0.00396285 0.00498132 0.000382306 0.000564979 0.00304847 -0.000790561 -0.00697212 -0.000622784 -0.00537441 -0.00847043 -0.00683944 -0.00661132 -0.00242886 0.00507113 -0.000628182 0.00857428 0.00564877 0.00889445 0.0027843 0.00175258 0.000713737 0.00926288 0.00676554 0.00383574 0.0033716 -0.00187481 0.00454795 0.00241864 -0.00292132 0.00459426 0.00602478 0.00553579 0.00581446 0.00131398 -0.00827188 -0.00698157 -0.00122158 -0.00362406 -0.00573255 -0.00482641 -0.00509425 0.00056968 0.00481056 0.00906784 0.0106749 0.00201018 0.00530327 0.00134021 0.00679978 0.00814606 0.00108067 0.00481861 0.0064153 0.00489003 -0.00249936 2.08915e-05 0.00497014 0.00819722 0.003793 -9.1288e-05 0.00217665 -0.00665076 -0.00337942 0.000734591 -0.00556149 -0.000416643 -0.00435877 0.00171107 0.00474249 0.00478805 0.00575676 0.00207924 0.00784268 0.007967 0.00631967 0.00659794 0.0039162 0.00655788 0.00105315 0.00283197 0.00122214 0.00114304 0.00063959 0.00713434 0.00965825 0.00959551 0.00902643 0.00620253 -0.004883 -0.00151444 -0.00616654 0.00140386 -0.00346266 0.00182108 0.00150259 0.00121565 -0.000324834 0.00247993 0.00138116 0.00386614 0.00985202 0.00409174 0.00569683 0.00587629 0.00742268 0.00691706 0.0083041 0.00831161 0.00731601 0.00612468 0.00244577 0.00376532 0.0104703 0.00741433 0.00764647 9.32838e-06 -0.00322833 -0.00517809 0.00131942 -0.00417295 0.00246404 -0.00370841 -0.00861925 0.00113371 7.39926e-05 -0.00423916 0.00436756 0.00713809 0.00912456 0.00369956 0.00473105 0.00216495 0.00288681 0.00419954 0.0080869 0.00266067 0.00120543 0.00680781 0.00788587 0.0111938 0.0091389 0.00439767 -0.00441875 -0.00796766 0.000438821 -0.00596781 -0.00717913 -0.00562794 -0.0034681 -0.00551931 0.00240685 -0.00693811 0.0044503 0.00782755 0.00995901 0.0022564 0.00612909 0.00407629 0.00222391 0.00247423 0.0100005 0.00654272 0.00314485 0.00247611 0.00018062 0.00963879 0.00816687 0.0102019 0.00315924 -0.00125173 -0.00811016 -0.00170536 -0.00682653 -0.00281511 -0.00460898 -0.000384037 -0.00255264 -2.02736e-05 -0.0044554 0.00360802 0.00519484 0.00892762 0.00329416 0.0104462 0.00445024 0.00277187 0.00731959 0.00134021 0.000515464 0.00300243 0.00374987 0.00140979 0.00484159 0.00515273 0.00411214 -0.00123979 -0.00238238 -0.00363005 -0.00184853 -0.00149997 -0.00921512 -0.00711467 -0.000127096 -0.00325916 -0.00711543 -0.00589718 -0.00232502 0.00565776 0.000737264 0.00432881 0.0121439 0.00997251 0.00456158 0.00669961 0.00340206 0.00979381 0.00350515 0.00409062 0.00400175 0.00707361 0.00787315 0.00352446 0.00927593 0.0082803 0.00354379 -0.00100901 0.000209703 -0.00748263 -0.00290537 -0.00186738 -0.00292996 -0.00129251 -0.000455815 0.00138507 0.003339 0.00261966 0.00107111 0.00331831 0.00342721 0.00345162 0.00518002 0.00572436 0.00515464 0.00969072 0.00628866 0.0045943 0.00244307 0.00484179 -4.9421e-06 0.000901996 0.00386583 0.00424534 0.00751927 0.0023264 0.00752728 -0.0014061 -0.00152511 0.0014834 0.00434591 0.00632157 0.00465331 -0.00224771 0.00259932 0.00707983 0.00253404 0.00928393 0.00570108 -4.98258e-05 0.00231868 0.00720827 0.000515464 0.00670103 0.00319588 0.00606162 0.00358243 0.00131719 -0.00193816 -5.12665e-05 2.89863e-05 0.00923572 0.00612844 0.00549476 0.0038628 0.00654113 0.00716822 0.00632396 -0.00261956 -0.00214056 0.00376936 0.000719868 0.00640136 0.00245169 0.00284928 7.38392e-05 0.00245777 0.00296991 0.00497713 0.00979676 0.00742268 0.00762887 0.000618557 0.0101026 0.00379612 0.00836993 0.00271968 0.00589395 0.00558472 0.0058359 0.00828837 0.00381631 0.00147723 -0.00276927 -7.86854e-05 0.00244497 0.000948918 -0.0010966 0.00750585 0.006845 0.000662142 0.00672599 0.00491183 0.00799454 0.00374364 0.00381828 0.00835313 0.000106221 0.0056701 0.00134021 0.00474227 0.00989691 0.00845316 8.13778e-05 0.0048832 0.00470447 0.00327318 0.00254322 0.00561726 0.00607255 0.00582349 0.0058493 0.00820059 0.00570464 0.00773323 0.000448674 0.00138641 0.00606678 6.72872e-05 -0.000134345 0.00459532 0.00865634 0.000577537 0.00752517 0.00793814 0.00206186 0.00731959 0.00587629 0.00216495 0.00783505 0.00670103 0.00340206 0.00257589 0.00422259 0.00764036 0.0018817 0.00417073 0.00219779 0.000862296 0.00662063 0.00724284 0.00691057 0.00415667 0.00505425 -1.05007e-05 0.00648133 0.00761098 0.00136449 0.00361124 0.00749633 0.00533048 0.00824742 0.00536082 0.00969072 0.00103093 0.00628866 0.00731959 0.00762887 0.00113402 0.00752577 0.000721649 0.00587629 0.00907216 0.00154639 0.00701031 0.0042268 0.000721649 0.00546392 0.00690722 0.00917526 0.00443299 0.000824742 0.0014433 0.00278351 0.00123711 0.0056701 0.00474227 0.00123711 0.00257732 0.00793814 0.00762887 0.00134021 0.00865979 0.00546392 0.00639175 0.00814433 0.00597938 0.00185567 0.0102062 0.00174843 0.00947761 0.00592989 0.00119352 0.00108484 0.00779182 0.0062051 0.00666396 0.00376429 0.00322162 0.00893522 0.00026188 0.00133607 0.00916531 0.00494414 0.00536305 0.00577287 0.00907212 0.0101031 0.00597938 0.0056701 0.00680412 0.00680412 0.00206186 0.00268041 0.00319642 0.00340239 1.11857e-05 0.00891344 0.00202403 0.0084823 0.00579511 0.00112803 0.00745846 0.00379093 -6.22911e-05 0.00854744 0.00314276 -3.4095e-05 0.00874764 0.00061657 0.00161163 0.00232675 0.0050086 0.00709007 0.00123246 0.00823672 0.00545867 0.000206186 0.00886598 0.00195876 0.00762887 0.00865898 0.00793804 0.00269186 0.00341633 0.00185985 0.00859435 0.0015639 0.00108834 0.00478777 0.000932474 0.006125 0.00704816 0.00657339 0.000594189 -0.00128319 0.00643307 0.00470726 0.00686602 0.00383204 0.00675863 0.00386164 0.00586169 0.00645633 0.00486882 0.00835814 0.00979381 0.0042268 0.000103093 0.00123434 0.00948446 0.00512055 0.00831588 0.00657945 0.00542686 0.000490984 0.00883869 0.00304567 0.00329482 -0.00275022 -0.000948644 -0.00128877 -0.000253056 0.00313827 0.00382935 -0.00306093 0.00254863 0.00211784 0.00950919 0.00815673 0.00772393 0.00425703 0.00825375 0.00229318 0.00587551 0.00278351 0.00226804 0.00917487 0.000939625 0.00421796 0.00837881 0.00586012 0.0060471 0.00788304 -0.000785186 0.00398984 0.00170468 -0.00286104 3.34385e-05 -0.00422382 -0.00738697 0.00116183 -0.000862625 -0.00518129 0.00250402 0.00540325 7.77221e-06 0.000790203 0.00344625 0.0105104 0.00559973 0.00641817 0.00618546 0.000618557 0.0036084 0.000543168 0.0084113 0.00553643 0.00624436 0.00117317 0.00132384 0.00630407 0.005713 -0.00175516 0.00229056 -0.00438471 -0.00604745 -0.0019928 -0.00238159 -0.00576009 -0.00022572 -0.0064244 -0.00237482 0.00216056 0.00808578 0.00207657 0.00766332 0.0030939 0.000354929 0.00394001 0.00134862 0.00268117 0.00320218 0.00987237 0.00379656 0.00735322 0.00852614 0.00240521 0.00855133 0.00481869 -0.000420237 -0.00483833 -0.00375376 -0.00202714 -9.78892e-05 -0.000761986 -0.00150977 0.00241897 -0.00555573 -0.00427038 0.0029022 0.0011049 0.00367315 0.00482246 0.00558195 0.00945904 0.00735074 0.00709476 0.00103934 0.00310749 0.00911351 0.0061323 0.000726594 0.00587277 0.00308066 0.00387063 0.00118404 0.00455905 0.000682115 -0.00114374 -7.48712e-05 -0.000720743 -0.000660209 0.000642896 -0.000455112 -0.00212439 -0.00528397 0.00133401 -0.00123635 0.00746079 0.00478371 0.00912426 0.00291307 0.00897245 0.00394533 0.00365818 0.00732399 0.000825242 0.00402019 0.00807559 0.00243415 0.00897782 0.00985258 0.00205342 0.00137819 0.00723132 -0.00169147 -0.00101463 0.00210277 -0.00396314 -0.00347146 0.00218115 -0.003645 -0.000433651 -0.00753261 -0.0074565 -0.00510424 0.00111394 0.00247383 0.00142617 0.00296406 0.00938388 0.00156251 0.0103832 0.00622267 0.00783505 0.000785696 0.00493179 0.0105334 0.00662051 -0.000271717 -0.001185 0.0041773 0.000566536 0.00263695 -0.00193663 -0.00026884 0.00434944 0.00414031 -0.00416002 0.00104941 -0.00596506 -0.00293032 -4.38442e-05 -0.00597048 -8.45208e-05 0.00362652 0.00560347 0.0079513 0.0105486 0.00715334 0.00718515 0.000121351 0.00216495 0.00640222 0.001477 0.00151546 0.00350952 0.00536054 -0.00135414 0.000724926 0.00496464 6.80299e-05 0.000332697 -0.000303867 -0.00243141 0.00197564 0.000397535 -0.00041447 -0.000556294 -0.00826124 -0.00459653 -4.86818e-07 -0.00506447 0.00370274 -0.00244296 0.00323085 0.00641817 0.00733429 0.00128126 0.000317985 0.00340206 0.00870904 0.00349953 0.00852324 0.000945215 0.00836759 0.0051473 -0.00169968 0.00335777 -0.00581539 0.00652553 0.00121741 -0.000335145 -0.00113243 0.00256996 0.00167628 -0.00894647 0.00061883 -0.00157059 -0.00481304 -0.00240787 -0.000931889 0.00524787 0.00493573 0.00446598 0.00109487 0.00822252 0.00494565 0.00309278 0.000326449 0.0101469 0.00419536 0.00481396 0.00737878 0.00144769 0.00469213 0.00520475 0.00377 0.00275589 0.00380706 0.00358636 -0.0008413 -0.00260134 -0.00102988 -0.00836744 -0.0115951 -0.00466163 -0.00656624 -0.00318138 -0.00123237 -0.00177092 0.00380309 0.00553082 0.00215095 0.0015289 0.00875746 0.00917526 0.00897556 0.00655915 0.00955887 0.00745358 0.00877143 0.00930961 0.00564531 0.00443177 0.00324154 0.00177465 -0.00220781 0.0013296 -0.00464212 -0.00864906 -0.00615503 -0.0129315 -0.00868763 -0.00754189 2.77497e-05 -0.00289132 -0.00172072 0.00619757 0.00529795 0.00511102 0.00214469 0.000101902 0.00773135 0.00247423 0.00546711 0.00240435 0.00155096 0.00122521 0.006577 0.00407071 0.00365059 -0.00408256 0.000780551 -0.00451357 -0.00313063 -0.00903972 -0.0046858 -0.0119065 -0.00385286 -0.0116565 0.000166979 0.00418188 -0.00309483 0.00519002 -0.000790382 0.00909332 0.00748645 0.000902878 0.00168701 0.00564106 0.00163162 0.00927835 0.00742507 0.0073368 0.0101505 0.00131731 0.00859199 -0.0026391 -0.00160892 -0.00595755 -0.000212069 0.00178406 -0.00517839 0.00241007 -0.00651985 -0.00577335 -0.00607131 -0.00672066 0.00124099 0.00331302 -0.000227403 -1.68153e-05 0.00297468 0.000973807 0.00479119 0.00666131 0.00296261 0.00643383 0.00162349 0.00670103 0.00165003 0.00847427 0.000522861 0.00615232 0.000791576 0.00197364 0.00304574 -0.00144752 0.000519277 -0.00325108 -0.00494196 0.000156314 0.00106628 -0.00851797 -0.00407919 -0.00215145 -0.000473697 0.000107741 -0.00250718 -0.00392558 0.00168874 0.00326672 0.00231331 0.00873988 0.00465665 0.00490737 0.00607878 0.00639175 0.00113402 0.00137731 0.00977418 -0.000638713 0.00363242 0.00328874 -9.56048e-05 -0.00614291 0.00358062 -0.00226952 -0.00409282 -0.00348173 -0.00570086 -0.00575728 -0.00425653 -0.00657155 -0.00587016 -0.00203305 0.000225572 0.00076251 0.00575067 0.00144692 0.00668675 -2.88837e-05 0.003522 0.010106 0.000387969 0.00247423 0.00309928 0.00393179 0.00967925 -0.000334193 0.00395552 -0.00232674 0.00240301 -0.00677509 -0.00605193 -0.0052049 -0.00593884 -0.00499373 -0.00760502 0.000366568 -0.00515748 -0.000974776 -0.00822469 0.00168921 -0.00741813 -0.00550637 1.89006e-05 0.0083555 0.00591577 0.00554223 0.00219101 0.00407192 0.00339179 0.00701031 0.0100164 -6.68663e-05 0.00841433 -0.000411024 0.00515029 -0.0023527 0.00193766 -0.00655081 -0.000148137 0.00185312 0.00172881 -0.00380075 -0.0014162 -0.000961299 -0.0018797 -0.00620329 -0.0056023 -0.00153775 -0.00558029 0.000720079 -0.000571311 0.00440598 0.00725273 0.00462837 0.00810954 0.00593048 0.00175258 0.0085567 0.00979381 0.00209942 0.0049572 0.00418761 0.00408947 0.00191973 0.00211968 -0.00245792 -0.00658877 -0.00234394 0.00400721 0.00257714 0.0004267 -0.00621535 -0.00741165 -0.00428838 -0.00413179 -0.00385961 0.00186859 0.00480204 0.0062603 0.00019792 0.0025569 0.00465019 0.00680361 0.000936799 0.00742268 0.00927835 0.00608247 0.00359148 0.00203276 0.0052825 0.00611003 0.00138897 0.00502357 0.00189365 0.00350506 0.00478723 0.00383045 -9.84225e-05 -0.00377116 -0.00683046 -0.00260006 0.00309677 0.00679019 -0.00127224 0.00513341 0.002317 8.69713e-05 0.00717955 0.00803218 -0.00012929 0.00267409 0.00239427 0.000103093 0.00350515 0.00123711 0.00659454 0.00926993 0.00308511 0.00494688 0.00284398 0.00930001 0.00291534 0.00203507 0.00770288 0.00632069 -0.00187757 2.98382e-05 -0.00574118 0.00421672 0.00628087 0.00730932 0.00343194 0.00491321 -0.00192234 0.000482926 0.0024855 0.00647396 0.0021229 0.00547493 0.00546859 0.0042268 0.0042268 0.00350515 0.0102399 0.00352884 0.00678091 0.00054371 0.00505437 0.00947776 0.00879092 0.00338466 0.00743732 0.00918413 0.00935471 -0.00189181 0.00322991 0.0077383 -0.00204289 0.00389338 0.00287579 0.000975519 0.00315696 0.00519836 0.00374943 0.00857152 0.0069569 0.00843775 0.00793785 0.00762887 0.0071134 0.00391753 0.0082461 0.00836184 0.00727292 0.00739474 0.00352936 0.00999335 0.00942854 0.000731146 0.00065868 0.00848894 0.0017422 0.00846883 0.00309057 0.00830723 0.010586 0.00972937 0.00511292 0.00732993 0.0069522 0.00800593 0.00541313 0.00308679 0.0084963 0.00793788 0.00762855 0.00278351 0.00773196 0.0102062 0.00484536 0.00824733 0.00908298 0.00681835 0.00453676 0.00528256 0.00824199 0.000503875 0.00544403 0.00449967 0.00741043 0.00891875 0.00720703 0.0040644 0.0059996 0.00638566 0.00209415 0.000994647 0.0053187 0.00390755 0.00848388 0.0066838 0.00381411 0.00402062 0.00371134 0.000206186 0.00402062 0.00556701 0.00639175 0.00824742 0.00536082 0.00423307 0.00949536 0.00832887 0.00925191 0.00536973 0.001246 0.00674351 0.00172046 0.00376268 0.0101675 0.00356809 0.00110378 0.00340214 0.00761845 0.00168306 0.000314755 0.000791976 0.000615463 0.0067144 0.00134021 0.000618557 0.00989691 0.00443299 0.00185567 0.000206186 0.0042268 0.00876289 0.00896907 0.00154639 0.00463918 0.00969072 0.0042268 0.00886598 0.0102062 0.000824742 0.000412371 0.0028866 0.00237113 0.00453608 0.00814433 0.00412371 0.00164948 0.00154639 0.000515464 0.00185567 0.00762887 0 0.00154639 0.00237113 0.00484536 0.00690722 0.00783505 0.000412371 0.00216495 0.00628866 0.00123711 0.00463918 0.00658673 8.17775e-05 0.00459049 0.00667891 0.00320303 0.00740356 0.00153533 0.0093486 0.00544319 0.00308597 0.00125517 0.00302887 0.00380955 0.000344147 0.00923529 0.00678803 0.00185084 0.000102788 0.000206186 0.00927835 0.00381443 0.00773196 0.00783505 0.00927835 0.00927835 0.00824681 0.00226822 0.00508116 0.00781796 0.00150567 0.00891931 0.00236523 0.0102464 -0.000418206 -0.000967091 0.00861477 0.00642835 0.00875741 0.00175696 0.0042756 -0.00224023 0.00740196 0.0094889 0.00840378 0.00630084 0.00810969 0.00104628 0.00684471 0.00453608 0.00690722 0.0028866 0.00597938 0.00051931 0.0077243 0.00424398 0.00389162 0.00171068 0.00859161 0.00788368 0.00859909 0.00989401 0.00648145 0.00413721 -0.000217117 -0.00770617 -0.0110539 -0.00363221 -0.00168905 -0.00395164 0.00241023 0.00254879 -0.000419733 0.00352794 0.00445127 0.00638125 0.00226926 0.00269215 0.00546392 0.00257732 0.00257732 0.00331214 0.00969235 0.000567259 0.0116944 0.0058728 0.00528274 0.0172933 0.00670906 0.0181882 0.0181828 0.00311636 -0.00277096 -0.0106347 -0.0153188 -0.0184617 -0.00938775 -0.00495129 -0.00555543 -0.0040857 -0.000332401 0.000734456 0.00343547 0.00232991 0.00998119 0.00137055 0.000283618 0.00525773 0.00783505 0.00670286 0.00452076 0.00691651 0.0114569 0.00795338 0.0210075 0.00619294 -0.000359286 0.00629789 0.013486 0.011665 0.00174868 0.005037 0.0113406 -0.00768755 -0.0193907 -0.0202823 -0.0132972 -0.0085376 -0.00760761 0.00091518 -0.000563425 0.0064413 0.00808968 0.00996574 0.00852074 0.0071134 0.00154718 0.00270773 0.00410989 0.013223 0.011301 0.0194542 0.0156404 0.00962636 0.013186 0.00635358 0.0177558 0.0190841 8.15499e-05 -0.00393135 -0.000934785 -0.00449712 -0.0221382 -0.0237173 -0.0191707 -0.0166323 -0.00626527 -0.00505267 0.0026653 0.000658952 0.0050276 0.00601324 0.00459202 0.00731932 0.00330826 0.00948128 0.00749832 0.017062 0.010893 0.00395499 0.00462682 0.0019436 0.0123202 0.0117944 0.0154304 0.00713642 0.00118287 -0.00741688 -0.00813234 -0.00122741 -0.0115863 -0.0375304 -0.0319267 -0.0201886 -0.00297135 -0.00490761 0.0045689 0.0073818 0.00678491 0.00567912 0.00452347 0.00287796 0.00406413 -0.000192226 0.00524523 0.012518 0.0109735 -0.00445915 0.00289079 0.00948517 0.0178665 0.0125708 0.00961797 0.0127676 0.0196672 0.0201937 -8.66199e-05 -0.0142148 -0.0156065 -0.0280363 -0.0278518 -0.0209693 -0.00657628 -0.00545826 -0.00127779 0.00224119 0.00851031 4.46937e-05 0.00124999 0.00556683 0.00291069 0.00290221 0.00963027 0.00936612 -0.00113298 -0.00371897 0.00421263 -0.00622937 -0.0100868 -0.00503756 0.000318921 0.0196136 0.0345576 0.0268899 0.0124901 -0.00957491 -0.0100428 -0.0132923 -0.017887 -0.0186202 -0.0140675 0.00182468 0.00517832 0.00760624 0.00902858 0.000722038 0.00770858 0.00948454 0.00218849 0.00890159 0.00232985 0.00425403 -0.00127516 -0.00325481 -0.013241 -0.0237558 -0.0366751 -0.0153887 -0.00616938 0.0273189 0.0315102 0.00289575 -0.014394 -0.00754279 -0.00739181 -0.0145595 -0.0200943 -0.00593703 -0.0105118 -0.00445968 -0.00228943 0.00191835 0.00995454 0.0010751 0.00204967 0.00773196 0.00701453 0.00837794 0.00425636 0.00139279 -0.0118372 -0.0139959 -0.0214291 -0.0228346 -0.0342933 -0.00680507 0.0249475 0.0315139 0.0265242 -0.0159604 -0.0243997 -0.0142667 -0.00925473 -0.0135784 -0.0149861 -0.0129726 -0.0145736 -0.00756087 0.00245718 0.00328973 0.000864879 0.009532 0.00752992 0.00247423 0.00426354 0.00775005 0.00204612 -0.00259941 -0.00590503 -0.010526 -0.013296 0.000402252 -0.00052641 0.0289352 0.0364341 0.0284908 0.00482222 -0.00435291 -0.0133252 -0.00792949 -0.018251 -0.0124298 -0.0105238 -0.0103412 -0.0115889 -0.00194152 -0.00629922 -0.0015001 0.00270959 0.00441251 0.00317397 0.00412371 0.00273457 0.000423092 -9.78643e-05 -0.00280319 0.000489367 -0.000986237 0.0011315 0.0171372 0.0245887 0.0433296 0.0339354 0.0151133 -0.00987594 -0.0125459 -0.00717539 -0.00932956 -0.00859638 -0.00380072 -0.00285637 -0.00250773 -0.014857 -0.0053493 0.00325344 0.00344928 0.0105945 0.00540654 0.00663531 0.00412371 0.00432336 -0.000190867 0.00488312 0.00538478 0.00559129 0.000812069 0.00688926 0.0240634 0.0384077 0.0347224 0.0167942 0.0061518 -0.0139383 -0.00855064 0.0010412 -0.00607815 -0.0261454 -0.0157622 0.00999659 0.00172213 -0.0029639 -0.00129216 -0.00047941 0.00174597 0.00847543 0.00850217 0.00814849 0.00113402 0.0090832 0.00292088 0.0102601 -0.00151776 0.00368787 0.00631033 0.0106075 0.0121713 0.0261381 0.0172629 -0.00352607 0.0023934 0.00368839 0.00975576 0.00214696 -0.0108775 -0.0200621 -0.0171257 0.00371579 0.00516295 0.00976991 0.00943264 0.00803492 0.0191774 0.0139434 0.012283 0.00672732 0.00185567 0.000213609 0.00163956 0.00525655 0.00617625 -0.00246579 -0.00540821 -0.000629747 -0.0081662 -0.00152995 -0.0140897 -0.0263718 -0.0217115 -0.00504875 0.00953696 0.00804618 -0.000349427 -0.00391989 0.00755064 0.00109176 0.0113011 0.0161468 0.0199534 0.0222894 0.0227836 0.0177201 0.00808032 0.0102471 0.0057732 0.00113606 0.00393622 0.00874887 0.00257906 -0.0076131 -0.0104659 -0.00451694 -0.0166731 -0.0238858 -0.0314568 -0.0272845 -0.0272423 -0.0230129 -0.00750907 -0.000200152 0.00165145 -0.000314691 -0.0113862 -0.00227291 -0.00157669 0.0205961 0.0261278 0.0150629 0.0144652 0.0168856 0.00428677 0.0104742 0.00876289 0.00597938 0.00358769 0.00901818 0.00410383 -0.00558519 -0.0131733 -0.00944404 -0.021248 -0.0193223 -0.0287161 -0.0197835 -0.022623 -0.0234247 -0.0122968 -0.011825 -0.00889447 -0.00704671 -0.0135321 -0.00237434 -0.00271844 0.0168865 0.019744 0.0113455 0.0107867 0.00790618 0.0103175 0.0025901 0.00979381 0.0058671 0.0054368 0.00350881 0.00386566 -0.0033058 -0.00984763 -0.0139772 -0.0212139 -0.0229131 -0.00859284 -0.0141094 -0.0127862 -0.0131513 -0.015962 0.000200888 0.00419503 -0.000601075 0.00183943 -0.0100208 -0.00785249 0.0109406 0.0227529 0.013011 0.0105506 0.0117352 0.01032 0.00785053 0.00927835 0.00255418 0.000908201 0.00500552 -0.001859 -0.0103674 -0.0100048 -0.00500963 -0.00379483 -0.0125409 -0.0098776 -0.00860181 -0.0165123 0.000844651 0.000910256 0.0086835 0.0185054 0.00575293 0.000115641 -0.0134194 0.000441956 0.0102624 0.018865 0.0117536 0.0074213 0.010479 0.003707 0.00876289 0.00865979 0.00556701 0.00536058 0.00689855 -0.00103662 -0.00782973 -0.00482216 -0.0109638 -0.0173482 -0.00829355 -0.00790628 -0.0167558 -0.0129326 -0.0112117 0.00268669 0.00315474 0.00843476 -0.00371036 -0.00661167 -0.00190567 -8.2338e-05 0.00544149 0.00969867 0.00966242 0.00317319 0.0042497 0.00846074 0.00278351 0.00257732 0.00824742 0.00538265 0.00587525 0.00266351 0.00365555 -0.000164226 -0.00378604 -0.0130755 -0.00829738 -0.00445873 -0.0047852 -0.00899359 0.00818048 0.00470766 0.00400309 -0.01542 -0.00928525 -0.000298712 -0.00828017 0.0104418 -0.00507064 0.00517954 0.00602146 0.00697424 0.0080992 0.00238986 0.00268041 0.00123711 0.00814433 0.00486503 0.00998622 0.000833469 -0.00278013 0.000856979 0.00904151 -0.00153792 0.0020207 0.0114685 0.00572134 0.00274251 0.00653083 0.00343548 0.00296434 -0.00793457 -0.00735344 -0.00918381 -0.00138516 -0.00343954 -0.00674098 0.00261623 0.00422484 0.00667235 0.0022858 0.000655096 0.00876289 0.00113402 0.00453608 0.00534707 0.00957082 0.000988911 0.00826547 0.00804126 0.00771679 0.01133 0.00639724 0.0121977 0.0169277 0.0125635 0.000401601 0.00794559 0.0192325 0.00367004 0.000295713 -0.000330952 -0.00493292 -0.0106498 0.00454959 0.00849637 0.00766472 0.00687996 0.00846862 0.00598198 0.00298969 0.000721649 0.01 0.00465056 0.00120978 0.00784601 0.00789662 0.00756961 0.00545848 0.0142879 0.0109948 0.0073135 0.00964938 0.0126247 0.00771539 0.00822033 0.00764999 -0.00572633 -0.00259467 -0.00301186 0.00261598 0.00491062 0.00770039 0.00678638 0.00123574 0.000683895 0.00701261 0.00752853 0.000103093 0.00824742 0.00278351 0.0014433 0.00299024 0.00589504 0.00780003 0.00846675 0.00308239 0.00124875 9.54565e-05 -0.000938518 -0.000794413 0.00593793 0.00660875 0.000575616 0.0052455 0.00737574 0.00288446 -0.000827537 0.00219259 0.0107672 0.00854439 0.00138344 0.00619318 0.00329879 0.00134021 0.00340206 0.0102062 0.00360825 0.00226804 0.00103093 0.00154639 0.00917526 0.00876162 0.00453618 0.00039219 0.00772739 0.00192742 0.00492764 0.00592279 0.00911397 0.00972535 0.00553572 0.00220612 0.000305521 0.00168929 0.00122581 0.000150108 0.0101429 0.00535297 0.00755939 0.00958699 0.00525773 0.00360825 0.00639175 0.000721649 0.00247423 0.0028866 0.00237113 0.00773196 0.00907216 0.0043299 0.00824742 0.00484536 0.00752577 0.00649485 0.00804124 0.00628866 0.0071134 0.00608247 0.00917526 0.00876289 0.00989691 0.00752577 0.00402062 0.00762887 0.00752577 0.00443299 0.00907216 0.00206186 0.00298969 0.00329897 0.00927835 0.00731959 0.00927835 0.000927835 0.00597938 0.00340206 0.00701031 0.00185567 0.00170359 0.00257679 0.00224285 0.00553946 0.00296706 0.0100039 0.00876475 0.00487495 0.00383866 0.000291514 0.00131777 0.00402232 0.00244469 0.00261623 0.000606496 0.00695924 0.00475622 0.00235548 0.00948454 0.00762887 0.0028866 0.00515464 0.00371134 0.00762887 0.00876289 0.00730397 0.00700493 0.000565041 0.00821719 0.00124322 -0.00205114 0.00415089 0.00072443 0.00289216 -0.00588266 -0.00629637 -0.00114707 -0.00214708 0.00548548 0.00103338 0.00234017 -0.000413788 0.00756031 0.0096204 0.00606898 0.00157365 0.00476047 0.00108439 0.00474227 0.000412371 0.00845361 0.0057732 0.00309203 0.00458988 0.00148737 0.00294093 0.00795981 -0.00321016 0.00276413 -0.00423834 0.00276928 -0.00679975 -0.0115686 -0.00481408 -0.00101892 0.0103995 0.00299115 0.00673614 0.00012899 -0.00190434 0.00998512 0.0118374 0.0104531 0.0075058 0.00480385 0.00294888 0.00310107 0.00474227 0.00783505 0.00814433 0.00298711 0.00587153 0.00469907 0.00430272 6.98186e-05 -0.00398999 -0.00096565 -0.0112278 -0.00750406 -0.0135008 -0.0128334 -0.0171722 -0.00441781 0.0103832 0.0102718 0.00899799 0.00832234 0.00405814 0.013563 0.0106153 0.0119267 0.0102555 0.0175027 0.0100061 0.00366667 0.00396278 0.00309278 0.00783505 0.00298933 0.00880674 0.00525992 -0.000131204 0.00642266 -0.00141887 -0.0115582 -0.0208864 -0.00279533 0.00177311 0.00947455 0.0208321 0.00746481 0.00385966 -0.000649599 7.87663e-05 -0.00625489 -0.00728389 -0.00304817 0.000748254 -0.00379222 0.00760866 0.0134824 0.00898904 0.00980015 0.00146539 0.00412371 0.00484543 0.00289142 0.00423391 0.00615062 0.000167994 0.00880716 -0.00215674 -0.00595014 -0.00596932 0.00287434 0.0143932 0.0137739 0.0200503 0.00398691 0.00218802 0.0129501 0.0056701 0.00140931 -0.0201589 -0.0125368 -0.00167742 0.00501141 0.00547862 0.0107353 0.00849356 0.00708765 0.006323 -1.42191e-07 0.00628237 0.00410056 0.00875882 0.00590484 0.00270672 -0.00890262 -0.0138429 -0.0175544 -0.013913 0.00190536 -0.0148532 -0.014229 -0.000522433 -0.00869994 0.000939485 0.00903334 -0.00143724 0.00443696 0.00408927 -0.00520493 0.0113134 0.0140785 0.00530159 0.00853412 0.00954829 0.00111689 0.00598781 0.0096579 0.00754779 0.00373343 0.00564669 -0.00199621 0.0036296 -0.000465987 -0.0231794 -0.0106015 -0.0013818 -0.00296493 -0.0194201 -0.0219143 -0.0236311 -0.0159179 0.00308314 -0.00501868 -0.0105062 -0.00380261 0.00582591 -0.00609116 0.0154097 -0.0016756 -0.00675818 0.0084136 0.00926568 0.00963445 0.0093035 0.00896898 -0.000613807 0.00743218 0.00472086 0.00203143 -0.00520823 2.00922e-05 -0.00943544 -0.0121584 0.0157132 -0.0172518 -0.02627 -0.0146954 -0.0211741 -0.0154256 0.0110456 0.0053747 0.0017659 -0.0192012 0.000276908 0.00500822 -0.000844975 0.0015368 0.00462698 0.0110321 0.000254977 0.00106663 0.0093322 0.00907216 0.0065369 0.000429347 0.00347011 0.00104197 0.00392502 0.0129059 0.00359553 -0.0034656 0.0138454 -0.0089452 -0.0146599 -0.0126246 -0.0303642 -0.0279318 -0.0186091 -0.0146184 -0.0141384 -0.000191166 -0.0067973 0.00366123 -0.0100323 0.0225445 0.0174231 0.0215129 0.00903208 0.00583824 0.00147726 0.00206186 0.00215466 0.00447418 0.00648237 0.0056478 0.0202632 0.0156882 0.00529937 0.00326666 0.0130981 0.00503534 -0.0106392 -0.0289549 -0.0302488 -0.0181905 -0.0124091 -0.00633651 -0.0054798 0.00974369 0.00996678 0.00732308 0.0205154 0.0161695 0.0219412 0.0143036 0.0120621 0.0114565 0.00369633 0.00865979 0.0061832 0.0117171 0.00267818 0.008423 0.0247578 0.0153161 -0.00436565 -0.00127641 -0.00267971 -0.00777038 -0.0314511 -0.0388149 -0.0219587 -0.0228126 -0.0221964 -0.0213046 -0.00875121 0.00861782 0.00933596 0.021002 0.025894 0.0237678 0.028359 0.0152595 0.00467896 0.00191704 0.00363577 0.00319588 0.00738256 0.00315956 0.000875237 0.000422989 0.0114505 0.0123829 -0.00252653 0.0108167 0.0249597 0.0363495 -0.000922752 -0.00781541 -0.0125358 -0.00133543 0.0138322 0.00781647 -0.00162704 0.0124077 0.0278535 0.0230805 0.0188558 0.0188087 0.0027794 -0.00331182 -0.00228363 0.00519564 0.00661438 0.00391753 0.00876514 0.00751178 0.00455791 0.00688833 0.00403034 0.00942578 -0.00201529 0.0144186 0.0519426 0.0474081 0.0195074 0.00475535 -0.00148935 0.0209341 0.0359961 0.0223741 0.0231397 0.0144301 0.00794892 0.0120532 0.00205766 0.000242547 -0.00973636 -0.0143258 -0.00650257 0.00265894 0.00821485 0.00505155 0.00702274 0.00762421 0.010677 -0.000628628 -0.00652225 -0.012823 0.00524981 0.00195355 0.0470785 0.069358 0.0561628 0.0367715 0.013096 0.0238352 0.00812627 0.0116535 0.0169893 -0.0120866 -0.00376473 -0.00720481 -0.00558701 0.00662963 -0.0034424 -0.0062848 0.00542599 0.00499608 -0.000143931 0.00113402 0.00287642 0.00034376 0.000914599 -0.00319977 -0.0270866 -0.0310661 -0.027304 -0.0210407 -0.00349461 0.0300395 0.0362886 0.0513142 0.0557889 0.0235551 0.00282204 0.0074796 -0.000621161 -0.0392059 -0.032069 -0.00496258 -0.000489344 0.00421988 0.00220999 -0.00034692 -0.00210934 0.00374593 0.00135729 0.0101031 0.00415527 0.00140633 0.00379454 -0.00778113 -0.0228546 -0.0402254 -0.044246 -0.044685 -0.0398416 -0.0317698 0.00264263 0.0190642 0.0235815 -0.00151563 -0.010023 0.00032542 -0.0205009 -0.0293441 -0.0271601 -0.00759874 -0.00170313 -0.00818413 0.00129985 0.000187779 0.00441031 -0.000549154 0.00797389 0.0043299 0.00195876 0.00871686 0.00648867 -0.00906631 -0.0192067 -0.0296998 -0.0476774 -0.0598663 -0.0499588 -0.0328237 -0.0262834 -0.0216342 -0.000819326 -0.0236526 -0.0156933 -0.0180165 -0.00500787 -0.010479 -0.00753956 -0.00948019 -0.0134792 -0.00806832 -0.00229335 0.00154084 0.00571476 0.00679671 0.00676575 0.0085567 0.00710866 0.00940562 0.00221606 -0.00526989 -0.00785912 -0.0231369 -0.0286301 -0.0339582 -0.0264567 -0.0246734 -0.0426003 -0.0451578 -0.0256661 -0.0152978 0.00353549 -0.0120017 0.0172683 0.0200104 0.0142545 -0.00505827 -0.0133199 -0.0162615 -0.00400093 0.0112841 -0.000119717 0.00403943 0.00612795 0.00206186 0.00514269 0.00301879 0.00686892 0.00334293 0.002924 -0.00771429 -0.011092 -0.0180195 -0.0102897 -0.0126795 -0.0243689 -0.0249957 -0.000781562 0.0119783 0.018958 0.013666 0.027452 0.0331892 0.00742578 -0.0120815 -0.017524 0.000102646 0.00215923 0.00604178 0.00816465 0.00243624 0 0.00103093 0.00670103 0.00570279 0.00338941 0.00741924 0.0150055 0.0131331 0.0193612 0.0124346 0.0117084 0.0103586 0.0134329 0.0100735 0.0162818 0.0233439 0.0265532 0.00693034 0.0114797 0.00710634 -0.0135149 -0.0286084 -0.0155818 -0.000318059 0.00337157 0.00105364 0.00842577 0.00248853 0.0102062 0.00556701 0.00969072 0.00977073 0.00219471 0.00701978 0.0145806 0.000978061 0.0115998 0.00731133 0.0107929 0.00060567 0.0182509 0.000792906 0.0226959 0.0301026 0.0212328 0.00141368 -0.00920513 -0.00743079 -0.00858742 -0.0175498 -0.0117124 0.000483807 0.0116929 0.0103328 0.00395274 0.00623056 0.00670103 0.00690722 0.00927835 0.00620418 -0.000339088 0.00175283 0.00619577 0.0152623 0.0128183 0.0340415 0.0374996 0.0227972 0.0194741 -0.00148401 0.0129001 0.0130396 0.00601791 -0.0085788 -0.0163474 -0.00967949 -0.00981997 5.82477e-05 -3.52293e-05 0.00901961 0.00563638 0.00554925 0.00858045 0.00809792 0.000927835 0.00608247 0.00896907 0.00764219 0.000646817 0.00787155 -0.00140378 -0.00201869 -0.000416541 0.0103582 0.0215356 0.0269068 0.018424 0.0164694 0.0138992 0.0166468 0.00813431 0.00504275 -0.0224654 -0.00194544 0.00390054 0.00440282 0.00240418 0.00245663 0.00524274 0.00433281 0.00712621 0.00346816 0.00608247 0 0.00329897 0.00311121 0.00783148 0.00296102 0.00343904 0.000612429 0.00139255 -0.00112213 -0.0016294 -0.00349492 -0.00749604 0.000714762 -0.00537693 -0.00476977 0.00500616 0.00520271 -0.00133371 0.0100356 0.0102528 0.00731702 0.00490293 0.00174217 0.00614572 0.00436409 0.00831766 0.000888523 0.000309278 0.00628866 0.0085567 0.00103093 0.000722338 0.00483862 0.00586097 0.00286088 0.00513901 0.00343517 0.0104545 0.00339859 0.0101301 0.0136108 0.0142742 0.00771025 -0.000131855 -7.0314e-05 -0.00155396 0.00106767 0.00299611 0.00386914 0.000582817 0.00287667 0.0082784 0.00360802 0.00123711 0.00762887 0.00453608 0.00515464 0.00134021 0.000309278 0.0042268 0.00164948 0.00567032 0.00783823 0.00929563 0.00655354 0.00312036 0.00299418 0.00446781 0.00888537 0.00489609 0.00154087 0.0062941 0.00121306 0.00594131 -0.00218612 0.00777627 0.00430824 0.00110753 0.000668417 0.010201 0.000309278 0.00886598 0.00876289 0.00175258 0.000412371 0.00628866 0.00195876 0.00278351 0.0101031 0.00989691 0.0043299 0.0042268 0.00804124 0.00989691 0.00391753 0.00721649 0.00309278 0.0056701 0.00556701 0.00649485 0.00237113 0.00721649 0.00309278 0.00639175 0.00721649 0.00814433 0.00814433 0.00701031 0.00824742 0.000618557 0.000824742 0.00731959 0.00948454 0.00206186 0.0043299 0.000721649 0.000515464 0.00865979 0.00481436 0.00168252 0.00617232 0.00557001 0.00113728 0.000904713 0.0088 0.00921955 0.00334397 0.00375539 0.00705261 0.00396475 0.00617456 0.00923923 0.0088195 0.00262537 0.00249035 0.00649591 0.00773196 0.00886598 0.00896907 0.00402062 0.000309278 0.00783505 0.0071134 0.00474152 0.00752553 0.010022 0.00370821 0.00213797 0.00809944 0.00849246 0.00660298 0.00488448 0.0036907 -0.0081113 -0.000665657 -6.59032e-05 -0.00096953 0.00058831 0.00565447 0.00291659 0.00610614 0.00271672 0.00596356 0.00489737 0.00989072 0.00964186 0.00484536 0.00257732 0.0101031 0.00865979 0.0071138 0.00578004 0.00258424 0.00439225 0.0048464 0.00762288 0.00729898 0.00852645 0.0059371 0.00096481 -0.00602838 -0.0156272 -0.0155249 -0.00956095 -0.0110611 -0.00857481 0.00226265 0.00210737 -0.00259633 0.000107575 0.00694172 0.000882111 0.00502199 0.00779559 0.000288625 0.00628866 0 0.00608247 0.00855808 0.00124673 0.00324236 0.00288306 0.00714607 0.00377084 0.00490208 -0.00157385 -0.0106784 -0.0208668 -0.00902992 -0.0150746 -0.0127283 -0.0126747 -0.0054143 -0.00343109 0.00159208 -0.0131891 -0.00421966 -0.00694119 -0.00508285 -0.0031641 0.000538881 0.00519163 0.00282568 0.00331243 0.00989691 0.00257732 0.00381462 0.003724 0.00070031 0.0110872 0.0144655 0.0251561 0.0124723 0.00105396 -0.0249178 -0.0224522 -0.000161616 0.0132211 -0.00303597 -0.0216099 -0.0163845 -0.0301891 -0.026294 -0.018756 -0.0216074 -0.00835425 -0.00361939 -0.00165895 -0.00688326 0.00442669 0.00188935 0.00640566 0.00556701 0.00216518 0.00338601 0.00407726 0.00584338 0.0201633 0.0212255 0.0226527 0.0026761 -0.00711362 0.00334556 0.0268814 0.0380196 0.0178451 -0.0235067 -0.0269001 -0.0272851 -0.0115815 -0.0279216 -0.0191274 -0.0135818 0.00598777 0.000741668 -0.00498979 0.0014157 -0.000267515 0.00656024 0.00101122 0.00268085 0.00238288 0.0126755 0.0164459 0.00915748 0.0156621 0.016805 0.0128387 0.0123795 0.0216652 0.0473986 0.0422385 0.0345009 0.0154841 -0.0317704 -0.0144408 -0.0049551 -0.00105605 0.0022483 -0.0116327 -0.00588708 0.00651479 0.000817228 0.004634 -0.0039693 -0.00142317 0.00421301 0.00594704 0.00293745 0.00472647 0.00358002 0.0125106 0.0151129 0.0194251 0.0134505 0.0230404 0.0314449 0.0226438 0.0292146 0.00507351 0.000266338 -0.00647145 0.0112974 -0.000283701 0.00873279 0.00299746 0.00831132 0.000978353 -0.013371 0.00307183 0.0141699 0.0198831 0.00687568 0.00308093 0.00796901 0.00578014 0.00587658 0.00932711 0.00303552 0.00644022 0.013833 0.013399 0.0205765 0.00795037 0.00932754 0.00988662 0.00120098 -0.012273 -0.00520194 0.00165642 -0.010126 -0.00739855 -0.00338603 0.00309552 0.00809079 0.00251729 -0.0271336 -0.00357436 0.0183772 0.0179217 0.001419 0.00330327 0.00732413 0.000542402 0.00515464 0.00558687 0.00770217 0.0101687 0.000112149 0.00206411 0.00858907 -0.00918338 -0.00790685 -0.0169978 -0.00813554 0.00124131 -0.0115509 -0.0350687 -0.0730128 -0.0555435 -0.0277423 -0.0176178 0.00701426 -0.00263136 -0.0197768 -0.00253258 0.00240776 0.00283289 0.000121727 0.00366895 0.000467665 0.00956862 0.0042268 0.00920345 0.00339774 0.00678448 0.000804643 0.00282773 0.00907571 -0.00224884 0.0015252 0.00457849 0.00310427 0.0131644 -0.0117152 -0.0444529 -0.0722294 -0.066732 -0.0233625 -0.0274644 0.00472638 -0.0167278 -0.010899 -0.00227372 -0.00429778 0.000786893 0.0059346 0.0080319 0.00500317 0.00111108 0.00979381 0.00221724 0.00834264 -0.00249433 -0.00492577 -0.00692862 -0.000935226 -0.00130294 0.00757708 -0.00100612 -0.00797767 -0.00403692 -0.0191093 -0.0471144 -0.054807 -0.0541634 -0.0137943 -0.0122114 0.00513907 -0.0182207 -0.0252428 -0.00675404 -0.00773072 -0.0120999 0.00693101 0.00869216 0.00765325 0.00531062 0.00814433 0.00461247 0.0024021 0.00289732 -0.00665672 -0.0182081 -0.00944307 -0.0154211 -0.0117505 -0.0138628 -0.0240389 -0.0381911 -0.0569326 -0.0555919 -0.0512197 -0.0491749 -0.012264 -0.0207715 -0.0187874 -0.0221967 -0.0277817 0.00639258 0.00190699 -0.00554444 0.00260819 0.012768 0.0102166 0.00964878 0.00701031 0.00367997 0.00637805 0.00262802 -0.0184065 -0.00945388 -0.0085899 -0.00722247 -0.0181448 -0.0306762 -0.0243017 -0.0360589 -0.0579892 -0.053118 -0.0440992 -0.0191106 -0.00396497 -0.0216915 -0.00628593 -0.0281165 -0.028031 0.012954 0.00583408 -0.000924516 0.00340719 0.0156169 0.0104421 0.010213 0.00391753 0.0089492 0.0074502 0.000132662 -0.0151351 -0.0220998 -0.0104114 -0.00904855 -0.0371443 -0.0327553 -0.0237537 -0.0212439 -0.0357002 -0.0457338 -0.0389569 -0.00306687 -0.00499098 -0.021314 -0.0150773 -0.0277751 -0.0108998 -0.000403465 -0.0090455 0.00202131 0.0179361 0.00509369 0.00736425 0.00149009 0.00381443 0.000280673 0.00537053 0.0041588 -0.00594502 -0.0207941 -0.0183515 -0.0425922 -0.0453853 -0.0470752 -0.0229812 -0.0136135 -0.0137924 -0.0110941 -0.0124775 0.0122209 0.0224209 -0.00561171 -0.011654 -0.0176878 -0.0173623 -0.00299204 -0.00692149 0.00654033 0.00693742 0.00912993 0.00406 0.00931115 0.00783505 0.00164531 0.00846462 -0.00207045 -0.00287344 -0.0207557 -0.029231 -0.0484805 -0.0391381 -0.0279865 0.0136447 0.00795544 0.0033376 0.022932 0.0346579 0.038933 0.0258161 0.0112275 0.0216851 0.0154143 0.0105573 0.00957056 0.00131651 0.00553818 0.00757563 0.00570343 0.00873239 0.010553 0.00597938 0.0101031 0.00365593 0.00621406 -0.0023599 -0.0228058 -0.0224513 -0.0192517 0.00540286 0.00558697 0.0278885 0.0131164 0.0395197 0.0383403 0.0408194 0.0187566 0.0163021 0.0293434 0.0409071 0.0189414 0.0193492 0.0183216 0.00350315 0.00912204 0.0101428 0.00922861 0.0104904 0.00849215 0.00865979 0.00441697 0.00882288 -0.0020221 -0.00350716 -0.0268435 -0.0194902 -0.00633739 0.00604412 0.014929 0.0193361 0.0452213 0.0320495 0.0254827 0.0292599 0.00726256 0.00940908 0.0179561 0.0199437 0.019788 0.0157787 0.0112453 0.0115489 0.0100371 0.0142803 0.00483018 0.0024648 0.0010102 0.0056701 0.00954726 0.000599813 0.00503802 -0.00212656 -0.0195618 -0.0165534 -0.0208847 -0.0125379 -0.023688 0.0124303 0.0491813 0.0496818 0.0294558 0.00581839 -0.000835176 -0.0129045 -0.00522598 -0.000307711 0.0152613 0.0173833 -0.00887803 -0.00516985 0.00334924 0.0116665 0.00138318 0.0041589 0.00360825 0.00329897 0.00185567 0.00204284 0.00286621 -0.00557891 -0.00949657 -0.0224089 -0.0483577 -0.0200699 -0.0118817 0.0289268 0.0562388 0.0436494 0.0178994 -0.0264007 -0.0158562 -0.0194299 -0.00441841 -0.00301649 -0.0054736 -0.0060581 -0.0103057 -0.000786009 0.0188629 0.0103644 0.00674873 0.00882864 0.0028866 0.0057732 0.000515464 0.00028105 0.000676086 -0.0062725 -0.010148 -0.0199505 -0.0208829 -0.00266692 0.0107269 0.0425011 0.0436551 0.0331315 0.0172279 0.00418403 -0.0125731 -0.0208437 -0.0230615 -0.0156153 -0.0128944 -0.0169041 -0.0117876 -3.41948e-05 0.00313235 0.00569033 0.0028259 0.00843568 0.00206186 0.00402062 0.00969072 0.00625712 0.000318207 0.000367878 -0.000454773 -0.00274508 -0.00274543 -0.00937853 0.0171538 0.0311949 0.0495469 0.0548325 0.0389219 0.0144601 -0.0121756 -0.0136569 -0.0182972 -0.0324603 -0.0272094 -0.00960712 0.00969821 0.00638907 0.00076971 -0.00278941 0.00398482 -0.000548956 0.000618557 0.00690722 0.00474227 0.00339644 -0.00268328 0.00411165 0.00199049 -0.00434893 -0.0232981 -0.0179303 -0.0102182 0.00455208 0.0225989 0.0467528 0.0321497 0.017863 0.00700894 0.00906964 -0.00466135 -0.0134549 -0.00104741 0.00483543 0.00324465 0.0079757 0.00404288 0.00432499 0.0069679 0.00195546 0.000309278 0.0014433 0.00371134 0.00174616 0.00290229 0.00692153 -0.00249865 -0.00364046 0.00297273 0.00135049 0.00429644 -0.0122879 0.00693527 0.00821871 -0.00195801 0.0147377 0.011051 0.0130266 -0.00697685 -0.0119555 -0.00537976 0.00323399 0.000964275 0.00278066 0.00250306 -1.60319e-05 0.0046247 0.00237407 0.00814433 0.00742268 0.00979381 0.00206186 0.00381439 0.00581771 -0.00180414 -0.0100825 -0.000568441 0.00457647 0.0124997 -0.00106417 -0.0104741 -0.00734385 0.00395967 0.000607586 0.00206353 -0.00175424 -0.006906 -0.0018411 0.006145 0.00362802 0.0041774 0.00771192 0.00113736 0.00144308 0.00917526 0.00835052 0.00546392 0.00783505 0.00123711 0.00484536 0.000206186 0.00525773 0.00536282 0.0100005 0.000507112 0.00179082 0.00753391 0.00513759 0.00462222 0.00738241 0.0100045 0.00438263 0.00483525 0.00698888 0.00186261 0.0078313 0.0100296 0.00668345 0.00692511 0.000168109 0.00187099 0.000721649 0.00927835 0.00319588 0.00505155 0.00268041 0.00103093 0.00113402 0.000927835 0.00226804 0.00979381 0.00886598 0.000309278 0.00907216 0.000103093 0.0057732 0.0042268 0.00412371 0.00639175 0.000309278 0.00185567 0.00185567 0.00123711 0.00556701 0.00979381 0.00103093 0.00969072 0.00329897 0.00969072 0.00103093 0.00340206 0.00371134 0.0043299 0.00659794 0.00659794 0.00927835 0.00226804 0.00804124 0.00958763 0.00599333 0.00384568 0.00907962 0.00266794 0.000290022 0.000485305 0.00331601 0.00603219 0.00444624 0.000761475 0.00767243 0.00352715 0.00421805 0.0102041 0.00257673 0.00505054 0.00815109 0.0102068 0.0014433 0.00443299 0.00917526 0.00175258 0.0014433 0.00185567 0.00226804 2.44539e-06 0.00185654 0.00196208 0.00381468 0.00454895 0.00668634 0.00361885 0.00599919 0.0058845 0.00773174 0.0109066 0.00893834 0.000225101 0.00425998 0.00239661 0.00417162 -0.00306773 0.00392898 0.00206736 0.00388341 0.00567388 0.000835607 0.00690874 0.01 0.00865979 0.00742268 0.00237113 0.0034015 0.00217533 0.00382035 0.00750356 0.00677167 0.0100842 0.00927625 0.00913837 0.00822063 0.0126229 0.0129974 0.0087802 0.00261558 0.00492262 0.00242636 0.00366499 0.000528499 0.00247761 0.0044032 0.0013235 0.00926587 -0.000232414 0.00289628 0.00439695 0.00555621 0.00814433 0.000515464 0.00969072 0.00535891 0.00433359 0.00991137 0.00224971 0.00967375 0.00753903 0.00848808 0.00982223 0.00781512 0.0110358 0.0167851 0.01089 0.00679443 0.00402136 0.00780421 0.0108766 0.00649942 0.0101859 0.0117365 0.00502066 0.0061192 0.00117917 0.00871817 0.00937421 0.00387327 0.00469225 0.00556701 0.00412371 0.00536056 0.00537312 0.00603985 0.0103111 0.00375919 0.00523181 0.00080973 0.00384503 0.00525674 0.0097643 0.00747017 0.00705464 0.0023999 0.00425069 -0.000471353 0.0045996 0.00350089 0.00594213 0.00655224 0.00481584 0.00815347 0.000365459 0.0022406 0.0048267 0.00403828 0.00848386 0.00402062 0.000618625 0.00658813 0.00454073 0.00617869 0.000170629 0.00262653 0.00260835 0.000891139 -0.000470159 -0.00282308 0.00667136 -0.00135776 0.00268177 0.00507946 0.0029048 0.00428684 -0.00228462 -0.000846549 0.00660588 0.0049011 0.00509047 0.00532785 0.0044636 0.000453425 0.001068 0.00464265 0.0034304 0.00587529 0.00236344 0.00969044 0.00766291 0.00442274 0.0017542 0.0012804 -0.00135029 -0.00175502 0.00158227 0.00392908 0.00615802 -0.000283673 0.00540127 -0.00128558 0.00135655 0.000638369 -0.00933813 0.00582756 0.0029182 0.00526109 0.000435312 0.00366689 0.00234294 0.00772811 0.00620184 0.00817344 0.00869026 0.0028778 0.00494482 0.00961369 -9.52147e-05 0.00298846 -0.00183606 -0.00236363 -4.96646e-05 -0.00050831 -0.00173869 0.00643145 -0.000288398 0.00308085 0.00566682 -0.00111095 0.00261733 -0.00549368 3.64935e-05 0.00156227 0.00808091 0.000359061 0.00108734 0.00504189 0.0052905 0.000399202 0.00113647 0.00195628 0.00648722 0.00401996 0.0091256 0.00251479 0.00472488 0.00374104 0.00267538 -0.000897499 -0.00318034 -0.00416529 -0.00509154 -0.00833384 -0.000982103 -0.00576734 -0.000196799 -0.00786242 -0.00639896 -0.00461483 -0.00423247 0.00438873 0.00294482 -0.0104426 0.00302495 -0.000533769 -0.00219866 0.00298425 0.00593997 0.00611668 0.00271987 0.000927835 0.00799004 0.00500828 0.00599687 0.00208582 0.00385018 0.000296497 -0.00734935 -0.0027892 -0.00522333 -0.0114648 -0.00666373 -0.0055934 -0.00506426 -0.00587528 -0.0120523 -0.00436712 0.00133545 0.00116928 -0.00098816 -0.00442791 -0.00183783 -0.00352596 -0.00544901 0.00252255 0.00851096 0.00536838 0.00751811 0.00721649 0.00484416 0.00424788 0.00261091 0.00677774 -0.00417075 0.002591 -0.00889067 -0.00643134 -0.0188556 -0.016034 -0.0157991 -0.00912929 -0.00350333 -0.01027 -0.00707978 -0.00225812 -0.00202966 0.0012211 0.000817888 0.00215566 -0.00419527 -0.00717218 -0.00115148 0.00535066 0.00730325 0.00867825 0.00267682 0.00103093 0.00865846 0.000971126 -0.000588869 0.00187589 -0.00451342 -0.00677667 -0.0116154 -0.00368597 -0.0127394 -0.00931159 -0.0179144 -0.0162766 -0.0159091 -0.00299498 -0.00986236 -0.00335067 -0.00597824 -0.00236962 -0.00489534 -0.00203075 -0.00935107 -0.0103189 0.00193464 0.00765167 0.0095167 0.00285894 0.00931575 0.000927835 0.000492127 0.00987764 0.00208441 0.0010452 0.00176012 -0.00232725 -0.0106321 -0.00568768 -0.00705124 -0.0121472 -0.0103452 -0.00955019 -0.00532834 0.000506682 -0.00754631 -0.00437362 -0.0150773 -0.00553089 -0.00774926 -0.00821577 -0.00536651 -0.00816382 -0.00480491 0.00174913 0.00837296 0.008514 0.00785847 0.00494845 0.00421129 0.00318145 0.00927071 0.00173153 0.000175162 -0.00750531 -0.00691169 -0.0114613 -0.0092802 -0.00169986 -0.00360033 -0.00686047 0.000463305 0.00606008 -0.00926226 -0.0093149 -0.0167017 -0.010252 -0.0123186 -0.00755697 -0.0131125 -0.00650687 -0.00364098 0.00372848 0.00275684 0.00265654 0.00330157 0.00195876 9.83542e-05 0.00472435 0.00615319 0.0045775 -0.00570367 -0.00201007 -0.00709843 -0.00947678 0.00171545 0.00700044 -0.00284252 -0.000758287 0.0150543 -0.0014456 -0.0062787 -0.0139826 -0.0163176 -0.0132894 -0.0172565 -0.00858027 -0.00821795 -0.00695858 -0.000588604 0.00511919 0.00195401 0.00423909 0.00190415 0.00927835 0.00649253 8.91928e-05 0.0093035 -0.00190211 0.00538821 0.00123599 -0.00236065 0.000111713 0.0012519 0.0154133 0.00848871 0.01001 0.0147203 0.00455988 -0.00765001 -0.0087425 -0.0160494 -0.0207732 -0.0209039 -0.0110592 -0.0129662 -0.00416681 -0.000307009 0.000944891 0.00676888 0.00594679 0.00254139 0.00123711 0.00525704 0.00407009 0.00126928 0.00869506 0.00887311 0.00315732 0.00354431 0.000138357 0.00537234 0.00968696 0.0178713 0.0159254 0.0151854 -0.00793307 -0.0142828 -0.00784801 -0.0197135 -0.0176069 -0.00936584 -0.00689873 -0.00441491 -0.00486949 0.000453444 0.00608565 0.00739321 0.00865451 0.00467645 0.00886598 0.00298969 0.00856257 0.00667804 0.0110836 0.00200955 0.00317405 0.00712302 0.00318616 0.0119252 0.0171337 0.00763117 0.0198681 0.00664895 -0.00811581 -0.0212717 -0.0143355 -0.00841217 -0.00513759 -0.00442678 -0.000114446 0.00375834 0.00878467 -0.000926222 0.00675022 0.0114352 0.00649995 0.000418714 0.00257732 0.000507011 0.00163428 0.00842738 0.0100574 0.0100488 0.00612164 0.00390205 0.00458219 0.00897443 0.0163629 0.0221182 0.0147673 0.000897634 -0.00670325 -0.013765 -0.0164709 -0.0138623 -0.00724851 -0.00724736 0.00528613 -0.00131524 0.0042423 0.00662242 0.00170517 0.00987322 0.00449287 0.00652622 0.00814433 0.00936014 0.0002943 0.0124468 0.00481155 0.0152109 0.0134895 0.00326599 0.00560816 0.00699534 0.0090585 0.0123835 0.00224964 0.00187051 -0.000864188 -0.000756824 0.00233721 0.00492773 -0.000880206 0.00122463 -0.00383398 0.00840785 0.00382994 0.00603509 0.00345968 0.0104626 0.00380711 0.00865979 0.00113402 0.00721649 0.00778692 0.00242862 0.0101845 0.0187249 0.0128302 3.11031e-05 0.00475887 0.00763204 0.00425287 0.00244003 0.00324724 -0.00554235 0.00147461 0.00440005 0.0124611 0.0088293 0.0102481 0.0052854 0.00573396 0.0132495 0.0170718 0.00833584 0.00879218 0.00130464 0.00765193 0.00381443 0.00969072 0.00154639 0.00468964 0.0041694 0.00714272 0.0138236 0.00856676 0.00891055 0.000241678 -0.0030241 0.00283719 -0.00447116 -0.00454657 -0.00709241 0.00522922 0.00423956 0.0137286 0.013706 0.0152386 0.0190765 0.0153372 0.0127954 0.0102639 0.00654399 0.0105245 0.0062082 0.00314889 0.00360825 0.00164948 0.00958763 0.00612888 0.00672334 0.00232883 0.0047169 -0.00039794 -0.00161323 -0.00228306 -0.00531194 -0.00461677 0.000455148 -0.00173787 -0.00838731 -0.00379055 0.00837471 0.00101344 0.00483207 0.00173111 0.00731373 0.0104948 0.0106344 0.004412 0.00367214 0.00280592 0.00247152 0.00527799 0.0043299 0.00164948 0.00247423 0.000286392 1.56501e-05 0.0058095 0.000478514 0.00166585 -0.000420154 -0.00114645 -0.00787298 0.00283471 0.000601822 0.00515924 -0.00339471 -0.000449179 0.00276425 0.00664194 0.00852338 0.0057198 0.00738466 0.00667323 0.00384376 0.0101469 0.00445169 0.00551675 8.08476e-05 0.00824981 0.00618557 0.00659794 0.000515464 0.00443314 0.0020221 0.00149975 0.0046148 0.00565207 0.00586572 0.00230706 0.006081 0.00470851 0.00335123 0.00748865 -0.00178208 0.00446817 0.00333938 0.00475612 0.00701825 0.00535344 0.00438179 0.00339396 0.00663398 0.00721329 0.00300059 0.00966986 0.00525985 0.00577573 0.00494845 0.0028866 0.00329897 0.00134021 0.00556805 0.00493729 0.00630001 0.00515318 0.00819486 0.00227806 -0.00116387 0.0050366 0.00277636 0.00789098 0.00134529 -9.1965e-05 0.000409067 0.00297359 0.00285989 0.00234156 0.000308298 0.00512107 0.00394339 0.00165719 0.00215435 0.0040213 0.00257732 0.00474227 0.00257732 0.00164948 0.00257732 0.0085567 0.00804124 0.000103093 0.0074171 0.00885586 0.00291855 0.001645 -0.000803473 0.00865697 0.00367495 0.000440737 0.00858454 0.00100267 0.0046967 0.000181843 0.00896775 0.00795608 0.00793945 0.0020437 0.00627237 0.00953843 0.00103204 0.00690722 0.00958763 0.00463918 0.00515464 0.00907216 0.00402062 0.00123711 0.00659794 0.0057732 0.00474227 0.00247423 0.00896907 0.00536082 0.0057732 0.00515464 0.000515464 0.00680412 0.00752577 0.00164948 0.00371134 0.00804124 0 0.00865979 0.00371134 0.00804124 0.00670103 0.00659794 0 0.00927835 0.0056701 0.00587629 0.00123711 0.00195876 0.00371134 0.00329897 0.00309278 0.0028866 0.00412371 0.00885577 0.00400636 0.00802868 0.0040487 0.00897327 0.00089403 0.00393875 0.00965987 0.00903387 0.0073319 0.0034659 0.00348638 0.00905338 0.00570595 0.0027842 0.0032714 0.00143061 0.00123695 0.00731959 0.0102062 0.000103093 0.000412371 0.00185567 0.00618557 0.000103093 0.00824663 0.0068043 0.00103561 0.00276068 -0.00058008 0.00392722 0.00167337 0.00473692 0.000698485 0.00853059 0.00303949 0.0048254 0.00624605 0.00761162 0.00149488 0.00461122 0.00799701 0.00436381 0.00108775 0.00450855 0.0081331 0.000508831 0.0100976 0.000927835 0.0101031 0.00608247 0.00814433 0.0029426 0.00309447 0.00112224 0.00517265 -0.00146523 0.00101467 0.00162663 0.00805661 0.00998527 0.00536178 0.00657169 0.00651432 0.00523333 0.00141954 0.00140033 0.00454808 0.00957856 0.00316162 0.00611429 0.00486089 0.00740977 0.00563147 0.00368166 0.00284306 0.0054947 0.00350515 0.00835052 0.0043299 0.0040062 0.00839349 0.000881137 0.00623325 0.00518197 0.00684944 0.00380588 0.00312646 0.000809571 -0.00377507 0.00587566 0.00966466 0.00491902 0.00266169 0.00458066 0.00380193 0.0034314 -0.00303804 -0.00350281 0.00324037 -0.00706351 9.24221e-05 -0.000153706 0.00805531 0.0075923 0.000453815 0.00309278 0.00907216 0.00404723 0.00965085 0.00492415 0.000817633 0.00330306 0.00381631 -0.00679883 -0.00715548 -0.0223854 -0.00736307 -0.00161783 0.00263867 -0.0153932 -0.0220657 -0.0193215 -0.0146459 -0.00268797 0.00859692 0.00149521 0.0039073 0.00348249 -0.00878241 -0.00246026 0.00931878 0.00429699 0.00637349 0.00618557 0.00556642 0.0048819 0.000587607 0.00109662 -0.00475573 0.00117002 -0.0042184 -0.0101569 -0.0219036 -0.0137286 -0.00850708 -0.00751632 -0.00503252 -0.0061843 -0.0130496 -0.0152723 0.0219008 0.02994 0.0266821 0.0154831 0.0151616 -0.0124771 -0.00500428 -0.0114517 0.00499371 0.00790935 0.00565758 0.00165027 0.00364849 0.00501748 -0.00109304 -0.00130103 -0.00451921 -0.00376675 -0.015013 -0.0168075 -0.0219737 -0.0140344 -0.0287777 -0.00549015 0.0250017 0.00943276 -0.00287854 0.00260649 0.0136756 0.0285298 0.0127125 0.0198359 0.0259645 0.00436419 -0.0157308 -0.0173446 0.00234342 0.00108504 0.00764414 0.0063778 0.00678177 0.00957692 0.00544333 0.00382709 0.000973478 -0.000530836 -0.00639459 -0.00926409 -0.0157017 -0.0188707 -0.0245838 -0.00817099 0.00514408 0.0216128 0.0259635 0.0251144 0.0188118 0.0149399 0.00170293 0.00384566 0.0188182 0.00744474 -0.00259693 -0.00612075 0.0079537 0.00589586 0.00263012 0.00505207 0.00647646 0.0048863 0.00811807 0.00950483 0.00153052 0.00698379 0.0111764 -0.00403841 -0.00838303 -0.00733309 0.0100998 0.013657 0.00735033 0.0185348 0.0338525 0.0258013 0.00459414 -0.00685745 -0.0063952 0.00442202 0.0167481 0.00108952 -0.00472099 0.00259793 0.00175789 0.00849957 0.00976649 0.00989691 0.0087668 0.0073077 0.0132596 0.00992596 0.0173022 0.0246301 0.0187773 0.0161837 -0.00152095 0.0194957 0.0282402 0.0234524 0.0170144 0.00693147 0.0255522 0.0171058 0.000252826 0.0121476 -0.00766053 -0.000588914 0.00338773 -0.00888391 -0.00695264 0.00284341 0.00915623 0.00606536 0.00146034 0.0014433 -0.000218197 0.00835679 0.00963156 0.0101921 0.00910228 0.0277885 0.0325522 0.0124825 0.0121447 0.0331534 0.0419334 0.021886 0.000540279 -0.00838128 0.00437639 -0.0101123 -0.0163149 0.00317592 -0.00635569 0.00496787 -0.000467622 -0.00508027 -0.00784443 0.00489116 0.00679764 0.00619776 0.00590732 0.00721649 0.0043593 0.0080381 0.00922531 -0.00123374 0.00207263 0.0083158 0.0179438 0.0046704 0.0293065 0.0221269 0.00264529 -0.0250528 -0.0575243 -0.0402454 -0.011158 -0.00187138 -0.00224172 0.00538567 -0.0129104 -0.00261933 -0.00237407 -0.00154118 -0.00581687 -0.000940012 0.00511532 0.00130047 0.00682509 0.00402062 0.00603515 0.00684937 0.00478481 -0.000804898 -0.0150709 -0.0108195 -0.0196625 -0.00532062 0.00710813 0.0107771 -0.0114227 -0.0447779 -0.0492017 -0.0161885 -0.00613605 0.00264793 0.0051791 0.00287275 -0.0216482 -0.0198974 